	Joy	Sadness	Neutral	Disgust	Anger	Surprise	Fear
00	0.449194889927	-0.0909793149097	-0.239425623874	0.600366134601	-0.410278599284	0.596292786313	0.21301439906
01	-0.261886834822	-0.740228695986	2.18390947205	-0.697863224666	0.318892795466	-1.0096146502	-0.827156923394
02	-0.848694563404	-0.991733894751	1.79811735843	-1.18339272835	0.218345097547	1.32223128515	-0.56219370242
03	-1.06160152313	-0.116348746152	1.50569556258	-1.07441859124	0.877590451472	0.0064024692852	0.323797877038
04	-1.68115851803	0.274058199813	1.74650086159	-1.37442489446	1.26876859875	-0.1923095029	-0.138654274406
05	-0.560057547453	-0.655115946061	1.44458739136	-0.198783673212	0.372767649727	0.729941094772	-0.922293105986
06	-0.48695235836	-0.603147112415	1.54364942982	-0.368054730494	0.024931125758	-0.525447443888	-0.249838282168
07	-0.946737954859	-0.30892157553	1.74240316755	-1.00418368369	0.817778455696	-0.715501265166	-0.311931408781
08	0.199737212421	0.401872252713	0.403845985154	-1.19649735222	-0.406644941727	-0.75388156671	0.280433297577
09	-0.229324453565	-0.178166942516	1.67876393437	-0.453856395317	-0.13833601929	-0.732637197918	-0.762845123306
10	0.284917269752	-0.640115940766	1.29861875466	-0.714526753931	0.338369511175	0.246061359028	-0.460113305889
10 00	0.959481847408	0.634696081	-0.303289473067	-0.861356994532	-0.105839308316	-0.618480636098	0.156468866324
10 30	-0.329417443677	0.0094369154662	0.300015989155	-0.0567204991561	-0.0422411831829	0.0842926306432	0.121628908304
10 days	0.00528568448912	0.63231629378	-0.732976170234	-0.246806796842	-0.419688412988	0.224646593953	0.634019753266
10 mins	-0.354198087705	0.937908039464	-0.451559134464	-0.376577027602	0.158224680064	-0.121534232645	0.271854773395
10 minutes	-0.230388873446	-0.0374588039789	-0.748458325614	0.108485525968	0.280482502203	0.0507507181244	0.429700211364
10 times	-0.666670302859	0.766782419223	-1.81325837414	0.0363660944935	1.35949531768	-0.207710977791	-1.01127966359
10 years	-0.572819831669	0.0651111016155	0.649005542613	0.460068130343	-0.100230296985	0.650209402463	0.595766647422
100	0.432768631891	-0.142057302418	0.629680278517	0.0991585105821	-0.0353393125959	0.389152962847	-0.590249905442
101	0.0274189955041	-0.192879229745	1.27481294473	0.451164755353	-0.162422776004	0.523018102389	-0.715325159894
10am	0.593913611854	-0.900878028836	0.0634410313619	-0.00635973426987	0.869859569141	-0.354163946407	-0.517014994521
10k	0.949682788309	-0.808825105012	-0.715963845768	-0.653606199721	-0.129342347371	0.0985051432235	0.948736224687
10pm	-0.364251253541	-0.271779742066	2.19379636229	-0.409392583931	-0.0699043342783	0.0463726053239	-1.49798989046
10th	0.298017900956	-0.150881693244	0.931197859803	-1.05806267148	0.0106581265326	0.478458666017	0.211544745225
11	0.226467180507	-0.20051744444	1.11020975215	-0.214235918868	-0.136150836623	-0.0580413344215	-0.0144564583462
12	-0.22142453484	-0.260914720807	1.76222728449	-0.671539470954	0.0844207005309	0.0997542823965	-0.447917517405
12 hours	0.693094474131	0.513301898465	-0.772379778706	0.471099303087	-1.16044242254	0.264034741765	0.836423173816
12 year	-0.488323224468	0.820654482548	0.419803516668	0.835007932218	-0.808664890277	-0.306897539188	-0.207714717536
120	-0.390470414683	0.0475574527703	0.358805572919	0.240794421587	0.0594186100073	1.15848800988	-0.29011790184
12th	-0.636746772066	0.0575805387651	0.771316916893	-1.45860590808	0.27285509812	-0.416661871053	1.20032579805
13	0.116948388786	-0.47577272639	1.42813369944	0.0248430262217	-0.789408188632	-0.760088273479	0.396115347815
13th	-1.84335715302	-0.188428588244	-0.120197244759	-1.16611249068	-1.39927154308	-0.774834620318	3.30777769981
14	-0.66335520759	-0.179237395449	1.85271930875	-0.014927603184	-0.326800892283	0.352721451684	-0.28229312451
140	0.216676357123	-0.540821889227	0.751117167395	-0.0379326812341	0.703655183113	-0.0734543525789	-0.450623716042
15	0.309841885052	-0.420742801088	0.917835003156	-0.255621971715	0.204618425714	-0.0947869958694	-0.0394281501441
15 mins	0.235669943869	-0.11358348827	-0.80583668187	0.929581517742	0.0902743672827	-0.0200254544447	-0.220662630467
15 minutes	-0.676531740019	0.134750094942	-0.0696752124334	-0.105502920978	0.788074660775	-0.11544185568	-0.255653216235
15 years	-0.470876001738	-0.0890345763917	-0.208224359941	0.155594085198	-0.488709592694	0.954372523169	0.811409258017
150	-0.193577438257	-0.190214187948	1.15715050868	-0.0754193813087	-0.00357544973539	0.825076038273	-1.09723196339
1500	0.340079127034	0.306563197955	1.57681728801	-1.18854543139	-0.259599723319	-0.124912133686	-0.904155312293
150px	0.339125803549	-0.341401985776	-0.0445006408048	-0.296137477637	-0.314444558827	-0.293105465479	-0.348674148347
15th	-0.135237942808	-0.102025540797	1.5802827386	-0.411032596842	-0.389113021794	0.388607242785	-0.758654894153
16	0.000248795747025	-0.207923142064	1.06463409313	0.24037993775	-0.0496245239668	-0.464752415535	-0.155382349312
16th	0.249068470744	-0.982615692808	0.61051380169	-0.685217767677	0.348314355108	0.0265870971991	0.801171147241
17	0.193028802146	-0.398725929931	1.51284669205	-0.0254790478066	-0.451311621873	0.102989093403	-0.270146193063
18	-0.139958323106	-0.112032673512	1.36346835807	-0.0545170803262	-0.24822409424	-0.40609592795	0.29192025151
18th	-0.850811712138	0.327232514366	0.711006996929	0.278769744598	-0.152496675634	0.268951859766	0.595126726646
19	0.157587973901	0.0738085163794	1.21698339368	0.0865479506711	-0.706209856868	-0.593828051744	-0.053471031528
199	0.333510795517	-0.788456367435	1.56381579015	-1.26723010812	-1.15768842879	0.246450328239	0.23066825661
1am	0.533094309326	-0.162060978674	-0.525407917186	-0.208704164956	-0.202028285272	-0.765243279124	1.4095729183
1d	0.511856678595	1.95222117154	-1.40803192695	-1.74279979902	-1.04292383934	-0.0472831829061	-1.39505299392
1st	0.301024750284	-0.81149916525	-0.16319001853	-0.374232911914	-0.210508719621	0.430465240918	1.42686340147
1st day	-0.675977490644	-0.00520606638491	-0.035171537256	-1.21158148473	-0.873439425136	-0.949732072248	2.1417926179
1st time	-0.55550170699	0.851590943591	-0.503068338926	0.465857159156	-0.931747785756	1.80387039701	0.0748414448427
20	0.151067348805	-0.33637063611	0.944117738559	-0.0822429875632	0.455762253826	-0.265105361825	-0.38874698582
20 mins	0.0204383108211	-0.363909436205	-0.127915290369	0.682321225946	0.201810246887	-0.0558668378353	-0.852750055037
20 minutes	0.149371009831	-0.217134176311	-0.458898956276	-0.975122980725	0.890446428809	-0.32604782135	-0.501252249201
20 years	-0.109329100854	0.457226135591	0.0462692435436	-0.218746836431	-0.0859985895149	0.187812997594	0.486827400105
200	0.242180330965	-0.0953335761039	1.06520489605	-0.397153715915	0.171841280145	0.126679569897	-0.876759289752
2003	-0.158580151621	-0.0715124460109	1.05071108645	-0.739178885727	0.198480854241	-0.442323215161	-0.57272869565
2004	-0.574566628782	0.411070730898	1.35136415632	-0.477985858317	-1.58080612472	-0.0432539935978	-0.191104955295
2005	-0.661163235848	-0.0229298541073	1.60700118233	-0.570461247285	-1.03780574456	0.406589209233	-0.496900965478
2006	-0.432517450852	-0.685295743889	1.44369340848	-0.0326289257472	-1.09762260447	-0.821312060395	0.481887032856
2007	-1.19679386599	0.330348144104	0.844436352114	-0.741427315389	-1.57739080068	-1.1100553694	1.79515896793
2008	-0.985496715383	0.487826452272	1.73560870338	-0.869168230776	-1.98720090049	0.106601716094	0.0911178433986
2009	-0.56681738134	0.7081641195	2.03686890784	-1.0702146728	-1.35396206744	-0.88837446196	-0.369102768784
2010	-2.39764739405	-0.465771837787	3.67746053872	-0.582151954567	-2.79027413352	-0.0489987424274	-1.63854875441
2011	-3.33693251935	-1.97673677364	6.08631257062	-2.08343751252	-3.16904083581	-2.71473430603	-3.36216794813
2011 url	-1.93566038541	-1.48302408022	1.43559855038	-0.451896864294	-0.64218774275	-0.198662912416	-0.505715764183
2012	-4.27810083576	-2.26842878819	6.93317001331	-3.33241831502	-3.85540907713	-3.26289541829	-3.10362376042
2012 url	-1.14299274762	-0.734903090039	1.29228759947	-0.966626142093	-0.436408686489	-1.01793780496	-0.597049438804
2013	-3.72251531076	-1.66359875784	5.9533513162	-2.59374975427	-2.36597049106	-2.65706902731	-3.81928632824
2013 url	0.213008212512	-1.65168421393	-0.17362684337	-0.115317851526	1.15286802718	-0.00226056518913	-0.097543215863
2014	-1.84731592475	-0.597851318144	3.43377000331	-1.03159322442	-0.612660050133	-0.766336900341	-1.87029396897
2014 url	0.799417361745	-0.556904309493	-0.431362792172	-0.817611785954	1.01750912515	0.553458747488	0.137465269519
2015	1.7623961125	0.701465729646	-3.40694596094	-0.0528553007592	-0.115015221828	0.502852094531	0.405876497358
2015 url	1.52816502814	-0.325702903878	-0.573413529782	-0.477305398902	0.918215873952	0.317995035165	0.73361452122
2016	1.73666198495	0.6721487375	-1.72951310976	-0.430425867215	-0.263594601055	0.0790706148921	0.136171815934
20th	-0.0613698316402	0.50923491526	0.32241766982	-0.0699121268049	0.0395800173166	-0.517175269245	0.221247005731
21	-0.371923104153	0.168037284246	1.96191517016	-0.72886493639	-0.445507513837	-0.812423376108	0.415318503476
21st	-0.734564602021	-0.0432161919992	0.314290385084	-0.355185686719	0.663555166096	0.346517469067	0.849591986147
22	0.0611700307755	-0.240988048175	1.36687765533	-0.209999125056	-0.225939271368	-0.206116199118	-0.0832630462256
23	0.468258385287	0.0147860464072	1.03692010175	-0.421951042162	-0.603708086595	-0.329658487872	0.196422064895
24	0.281463323407	-0.194104329629	1.2989558992	-0.665451083875	0.102707653777	-0.728790118149	-0.0536006757811
24 hours	0.0748783629659	0.0342069942583	0.102198009057	0.600388835573	-0.856834847033	1.02786552466	1.1116385475
25	0.165104174566	-0.224788267722	1.38803987516	-0.641842803963	0.0148346466483	0.315090941506	-0.754691905058
250	-0.255402193283	-0.118642861192	1.03621632625	0.607456908292	-0.319287095524	0.895932757932	-1.40478805616
26	-0.240422660641	-0.225023614719	1.23034582357	-0.235584854123	-0.233674664709	-0.338631758082	0.0556379042016
27	0.7257259021	0.364515945409	0.405358700609	-0.580917953502	-0.589024459134	-0.00943143349812	-0.0267254624339
28	0.0796311896634	-0.272806443906	1.38881731532	-0.227327680645	-0.330208387532	0.173420713562	-0.197830908547
29	-0.348452281258	-0.757768488459	1.69869911618	0.072254050095	-0.239322457733	-0.160579506343	-0.0972050901651
2am	0.64675622991	-0.202282364757	-1.05943373711	-0.0741163122809	0.291297448033	-0.187086956245	0.686076267474
2day	0.802318019268	0.91351485995	0.114097141542	-0.991800275603	-0.824268334848	0.0324633775937	-0.0033864746529
2k	0.347041668102	-0.281770383276	-0.268633520639	-0.0704878705762	0.669069467599	-0.310479931472	0.630886078733
2nd	0.241875211607	-0.232339519302	-0.171141041899	-0.0180741143258	0.887820281014	-0.476310978728	0.0635019731386
2nd time	0.056549017351	-0.585342958451	-1.98083080906	-0.345896400196	2.47518172068	-0.719287674957	-0.94463401346
2pm	0.440319665023	-0.756410245775	-0.612668409379	0.35330757455	0.208553286757	0.413358878547	0.290412444298
30	0.0203380584883	-0.412952406478	1.8280324318	-0.0408482342812	0.00602580180622	-0.397238414945	-0.476611426761
30 am	-0.202949559246	0.449250673383	-0.702052163537	0.696229682565	-0.47979162682	0.503137455285	0.895829742568
30 and	0.474737720441	0.183869092988	-0.473171613757	0.230607001298	0.270663267302	-0.376578524489	-0.123364047343
30 min	0.378847409325	-0.813903285006	-1.9156551516	-0.323970974763	1.40900434615	-0.785266711328	-0.0425297992832
30 mins	-0.0268840706972	0.732365852003	-0.704119006414	-1.34332025026	0.545526718308	0.519256647337	0.251083561269
30 minutes	-0.0913184714416	-0.810866341384	0.747443189473	-0.966102401145	0.785479060003	-0.179345630882	0.147207648002
30 seconds	0.0348348620887	0.0466653081034	-0.335657992878	0.75959122267	-0.495302824819	0.315449991405	0.382147398739
30 years	-0.137440537015	1.08765575694	0.59750528931	-0.382537602841	-0.689012817623	0.356521171723	0.0349911155317
300	0.107863891977	-0.353397417564	1.69894121583	-0.0811846476721	-0.153774217371	0.212990218656	-0.890104897927
30am	0.090252777539	0.331508540654	-0.641463360662	0.0241129309222	0.0490774996874	0.618547573218	0.428308502566
30pm	-0.0121248012983	-0.315232227276	0.566206735422	-0.0655955179676	0.252700685827	-0.357194781768	0.175274735859
30th	-0.698738549035	-0.166042311388	-0.133647639652	-0.0688630760105	0.240028607034	1.02573047827	0.856986690416
31	0.0161227536709	-0.722258039053	1.29315689319	0.112577406835	-0.792222849788	0.437952766927	0.210054254272
32	0.485408007127	-0.0720696055907	1.18466480694	-0.296918387224	-0.800935145803	0.606573803666	-0.385618206809
33	0.216067860092	-0.273995696678	1.6261779145	-1.30619841796	-0.479160347614	-0.580935460094	0.849350418051
34	-0.750841415574	-0.204440929169	2.05799491998	-0.332043436202	-0.746239679934	0.349642779459	0.256604408533
35	0.599664695983	-0.364452891644	0.986360546826	-0.42686601649	0.00413306372482	0.0334869864355	-0.416347391366
350	-0.344420732905	-0.499757542512	1.24132841673	0.699353596938	-0.663851392733	-0.268221273146	-0.108655848842
36	0.396921797965	-0.482878044222	0.525937790084	0.416746852458	-0.665535785515	0.0994451742404	0.627082394526
360	-0.33788744877	-0.83685004072	1.8539254898	-0.380928850264	0.0643687498576	-1.09966431419	-0.499710580773
37	0.29053697553	0.360266575899	0.559287931306	0.121749051213	-0.561375644539	-0.0617896564694	0.0601494112368
38	-0.0870293405113	-0.342751866096	0.894992223852	0.678886095264	-0.474167526045	0.577906174262	-0.236811365633
39	-0.49871619786	-0.252798808813	1.11226308495	0.760367234711	-0.926316254812	0.21149613903	0.0347597790941
3am	0.167819891481	0.0447972685844	-1.19021737046	-0.534342894838	0.295864669711	-0.268411222463	1.21987618685
3d	0.881007462631	-2.07842850075	2.18423048999	-1.32995701204	-2.03320437736	-0.993387278454	-0.993475637568
3g	-2.05418552435	-0.549783067921	0.646899452595	-0.310214006922	0.850735661587	1.79573215104	-1.32437674394
3rd	-0.266991182255	-0.276295969017	-0.152362606862	-0.220654466941	0.752065632752	0.551198955896	0.188969087684
3rd time	-0.531277844046	0.0600628583387	-0.89959284806	-0.859586299481	2.50154663539	-0.854278747116	-1.46833167867
40	-0.123864930298	0.132895263044	0.599664014407	0.145734297924	0.324262797214	-0.171352208021	-0.264146148172
40 minutes	-0.659878868091	-0.506565788673	-0.389330289286	0.562909682674	0.888451494484	-0.487907960009	-0.168077688495
400	0.29873935853	-0.36837516079	1.12710426986	-0.346330127207	0.119484093682	0.692297743894	-0.440148483906
41	0.0225905663518	0.266112487624	1.1709102793	0.0597494453099	-0.808792127268	0.508198767721	-0.313166435041
42	-0.286195056874	0.289904282058	1.44802510272	-0.093250384651	-0.335767666128	0.0104161063966	-0.729068866777
43	-0.755047291895	-0.597393465029	2.04338272493	-0.272806066529	-0.850957840033	0.267025761938	-0.23170813721
44	-0.0262352313553	0.419425964839	0.727869951239	0.0395163819426	-0.506899877384	-0.225722890893	0.178417736005
45	0.360161389021	-0.704281774139	0.318441021106	-0.22135579663	0.689521702154	0.19234800944	-0.630568515449
45 minutes	-0.433092558515	-0.0894690867906	-0.832946211686	-0.747272325462	0.87158301809	-0.901385570831	0.528664237742
46	-0.262513482043	0.283437236271	1.47002257677	-0.926139077221	-0.0153986970673	-0.0295218177885	-0.016451725272
47	-0.29867029312	-0.379421638501	2.5512623721	-0.544606104111	-0.639439330155	-0.696829793502	-0.060597433205
48	-0.331530891361	-0.658694388469	2.2198966488	0.15505773539	-0.40714675636	-0.0308115919167	0.0288044692361
49	-0.350369013973	-0.177151979587	1.34547163926	0.26171279267	-0.302347734747	0.357000859837	-0.406401044655
4am	0.448490809694	-0.149429008994	-0.549684627831	0.394703977734	0.121449678009	0.17103498876	0.308001502601
4c	-2.00602977298	-1.17040994	4.76063715298	-1.68501506408	-1.22294571191	-1.07362126657	-2.34856709532
4g	-0.979293861726	-2.20797691156	2.86973983828	-1.80851872016	0.0568955406881	0.327996515937	-2.49173729625
4s	-0.181942685517	-1.0254495843	2.1422002921	-0.53540308536	-0.274871362835	-0.636303490508	-0.852364492121
4th	0.169605250872	-0.343570406551	-0.0742454367007	0.137504952208	0.809625987449	0.791945110963	-0.646431487252
50	0.0543115707766	-0.359237735922	1.16875788087	-0.403173285062	0.470646471901	0.595114103461	-0.941355527726
50 shades	-0.507590212085	0.0760028970835	-1.63469022185	2.02993637245	0.0664585666978	0.0867398333216	-0.15112324199
50 shades of	-0.601902489454	-0.944232502512	1.00517308992	0.0245030349897	0.2787840035	0.0176349928018	0.461048151126
500	-0.211366573825	-0.132628800182	1.80750570959	-0.361734778597	-0.297109008587	-0.215652162582	-0.752668713592
50anscarrefour	-3.27021741586	-2.8126035057	6.62327450864	-2.64699213243	-2.54522883035	-1.94912967557	-2.14081993634
51	-0.270500185125	-0.783885874325	1.6505703641	-0.130022277106	-0.064213994481	0.409210148644	-0.0682170384533
52	0.150581800931	0.219409101564	1.07948527888	0.0140872208241	0.228689943972	0.255935129007	-1.29557020854
53	-0.0478578775402	-0.603782012449	1.5371497308	0.0778468873252	-0.79465980554	0.338839694731	0.169606601866
54	-0.0449641545634	0.303725869921	1.59131050047	-0.433318572733	-0.152523666693	-0.0910616053065	-0.448313067308
55	-0.345195008988	-0.0489777310805	1.2664987231	-0.279687244536	-0.130968702657	0.205121758128	0.140442621826
56	-0.374752442565	-0.455925530359	1.61166336993	0.341667823531	-1.11777271924	0.79747249601	-0.198639345863
57	-0.129760182134	0.210168074845	1.56492940991	-0.50919751192	-0.957098908746	-0.0131113132497	0.157092046326
58	-0.819352562115	0.258223898558	1.51375430342	-0.240077452186	0.22990539505	-0.148916387868	-0.600973991304
59	-0.406873174648	0.167052943411	1.61829399716	-0.646417091345	-0.216693130289	0.521881262986	-0.801690879247
5am	0.190833287953	0.113542202166	-0.955746637681	-0.0052400573597	0.998085873684	-0.393862787206	-0.243848565972
5k	1.25997587524	0.054202060294	-0.227437459634	-0.328496397157	-0.537810936628	0.567741722588	-0.32483978173
5pm	-0.0372740468696	-0.428344188766	1.17681889415	-0.0222695559141	0.24278710325	0.086828825377	-0.411810256459
5s	-0.53327274849	-0.0272703211936	1.67146443479	0.648006278441	-0.487830873054	-0.455900897856	-1.74842086993
5sos	1.04080033469	2.2339196757	-1.91478778464	-0.521426251503	-1.28234910074	-1.03925554354	-1.8743858338
5th	0.496447583843	-0.427575315222	-0.117355382597	-0.0920979191392	0.776642266564	-0.0163803644427	0.0343652650987
60	-0.0456586873056	-0.161406849952	1.41542805204	-0.400000462643	0.0172402201247	0.807502141577	-0.520870020174
600	0.208273343214	0.665750229133	0.222505860289	0.546998562941	-0.891588687583	0.438649864051	-0.612298689936
64	-0.26788163537	-0.568494427015	2.31666108139	-0.0606112566802	-0.220662632924	-0.066786698208	-1.76522771073
65	0.271947472563	-1.07626977878	1.44902030971	-0.0415141477838	-0.0718100790965	0.271491478645	-0.057772499279
66	-1.20226401485	-1.71723017246	1.31180161158	-1.62709178057	-2.10174509543	-0.727739574532	4.11714360828
67	0.29395819342	0.194273661489	1.93261137338	-0.955769512389	-0.381227066023	-1.01456872221	-0.812279585582
69	0.522244794847	-0.438203839812	1.58107886012	0.106238982525	-1.21846012997	-0.172508900656	-0.824627301988
6am	0.271972797199	0.102394839627	-1.16346633656	0.57201290204	1.2479469872	-1.64679342925	-1.0244974184
6pm	-0.753060157693	-0.255197822242	0.149327064638	0.281534222809	0.733892140646	-0.0340301159681	0.361592902461
6s	0.438960949702	-0.278121414514	-0.124475146521	0.421645613122	0.300783761543	0.344639509426	-0.799707602481
6th	0.50720100214	-0.505726051807	0.452016467807	-0.147989393439	0.131104666149	-0.0767672360154	0.33764115144
70	-0.0373043345399	0.155721383253	0.99502894065	-0.397525391847	0.430651793133	-0.304069009418	-0.296107239863
700	0.502598525384	0.367665388347	0.910435346158	0.634998638707	-1.03549982906	0.649668119072	-1.31850007021
70s	0.432057425155	-0.167270105577	-0.145571344641	0.914819980315	-0.982818014116	0.829006091292	0.14463841052
72	-0.078355359332	-0.802224405185	1.75682463941	-0.181950839889	-0.913932072686	0.896282920424	-0.124127551549
75	0.259707122246	0.199748922296	1.25887176677	-0.743042833566	-0.0471768536712	0.396961201663	-1.1179671907
7am	0.197135444381	0.487129380586	-0.709668528342	0.478876247126	0.739373306039	-0.437307712755	-1.00842871511
7pm	-0.497209824746	-1.07827804673	1.64581327959	-0.557443223619	0.406433819426	0.0615702917955	0.0433496677087
7th	0.265859653636	0.495730516392	0.196144830778	0.135947056302	-0.689265534835	0.118469358973	-0.0234484236848
80	-0.201873833689	0.0502763955503	0.424043035974	0.266643597405	0.308149844079	0.66527810165	-0.52305343981
800	0.110032764995	-0.420746342423	1.29096222207	-0.633594624013	0.302000414358	0.455715279585	-0.701579992472
80s	-0.287264151127	0.281790098721	0.703601493742	0.43401187007	-0.385108402162	0.405581586103	-0.0387135582771
85	0.156175410874	-0.247886742609	1.24035988659	0.0313843984729	-0.83641988035	1.25058226931	-0.406262975722
89	-0.104772642631	0.178852193876	1.14095116397	-0.630518700233	0.867282247807	-0.871946124015	-0.335987921088
8am	1.32745380723	-1.2564982275	-0.740823997867	0.613597841803	0.947665519958	-0.516772464461	-1.27155211894
8th	-0.304793612353	-0.0788510442515	0.643404737184	-0.199438504215	0.0366959179352	0.144717316026	0.550575043514
90	1.0126505904	-0.118763081153	-0.326018121152	0.480440020185	-0.0606417297414	0.627118683361	-1.1079050869
90 of	-0.789877859049	0.645352616167	-0.426147939985	-0.195500672496	1.09203567627	-0.787253836037	0.416137847668
900	0.885420013096	-0.289740167392	1.43912005677	-1.09455461492	0.00865454110361	-0.616541699137	-0.266679382463
90s	0.874444063976	0.445738962893	-0.33966696128	0.583559657802	-0.827328449771	-0.257149812391	-0.198365282978
911	-0.484342461709	0.829576415403	1.17865878385	-0.914917844189	-2.08947464775	-0.603620156695	1.85067105287
92	1.78977787463	-0.0169835610386	-0.0188550443467	-0.872344972148	-0.343828846643	-0.26124726803	-0.725539979513
95	0.429094224704	0.0812308185822	0.380412499873	0.183897235874	0.317049193273	-0.00161150772579	-1.28179934903
96	0.846951664439	-0.661749390773	1.88429874802	-0.36112310667	-0.973815318551	-0.133188543496	-0.7385666874
97	0.338071500889	0.23586774401	1.01995353253	0.55774134724	-0.690647266263	-0.759134386198	-0.250513433543
98	0.545652390248	-0.662017142025	0.428836018526	0.445901307231	0.100557091304	0.542442628829	-0.514682394738
9810	-1.47037373011	-1.24202440019	3.08883267391	-1.06642081384	-1.10120040058	-0.754465709521	-1.43227231429
9850	-0.730214955162	-0.65293078596	1.91655396946	-0.675255512384	-0.635708139354	-0.394709869778	-1.00704009891
9860	-1.13405907842	-0.808328422113	2.15592975289	-0.818368920047	-0.703800669349	-0.531453912814	-1.10689422194
99	-0.417102927356	-0.097279406295	1.91549008854	-0.35623914601	0.230783123865	-1.22591353999	-1.1347299936
9900	-2.10231685982	-1.78071231561	4.83018294925	-1.39140153634	-2.09877493481	-1.24936336986	-2.02530362715
9am	0.794300728387	-0.335444547642	0.04787985976	-0.0487450412557	0.727180346042	-0.539786218225	-0.555369298538
9pm	-0.964339601678	-0.363788499699	1.73169526932	-0.100119487652	0.808441096765	-0.955354804576	-0.849172291546
9th	0.447597494571	0.112295681295	0.510985402223	-0.265332802473	-0.511594594649	-0.504235393168	0.564369622416
__	-1.71666068018	-0.823041043567	2.65190990506	-0.614513703907	1.94940205801	-0.48148894597	-1.90685832439
aaron	-0.707034487457	0.444166802013	1.81568148169	-0.0523421555403	-1.0483585778	0.474363711658	-0.416487995852
ab	-0.966055357028	0.427894739192	1.01219883908	0.0833278277599	0.38880542045	0.932440303047	-0.426701626404
abandoned	-1.30014249145	2.59155939715	-2.3016426366	-0.659614269371	-1.03198473941	-0.12351711956	1.75701637457
abc	-2.58217303066	-1.36549606179	5.39517030484	-1.13039522523	-0.787287471564	-1.346429198	-1.84545986897
ability	0.153614029858	-0.302520349049	-0.92532992079	-0.704341345376	0.641062033482	1.25739755607	0.615287316553
ability to	-0.0368114966378	0.286746851122	0.327723500584	0.0177443319331	0.293652264046	0.0520518295576	-0.750430384946
able	0.473483953863	0.440564136092	0.0235792904552	-0.321524877147	-0.249919561777	-0.389567575337	0.160986131223
able to	0.963916305324	-0.848912882228	-0.055460669425	-0.58498104859	0.867189160613	0.0950828150951	-0.922633326011
able to get	0.50247797759	-0.239606706727	0.643194686129	-0.372191834826	0.695871425276	-0.803996578667	-1.08242242416
able to go	-0.682565999794	1.91663571203	-0.294552059644	-0.425086583645	-0.498946942067	0.0955781961183	-1.21516995526
able to see	0.530066990721	0.867156595728	-0.857080637872	-0.43629297464	-0.51212844441	-0.226263309588	-0.105732617102
able to sleep	-1.01667194319	-1.51747553838	-0.760622066715	-1.0057377185	-0.00827614141559	-0.11886224575	3.73862522624
able to watch	-1.01920637683	1.58778286259	-0.764843047627	-1.44122628722	0.319646579351	-0.227597291737	-0.312241168181
abortion	-1.40237087151	0.263880276664	-1.46331076607	2.89895157439	-1.19303200069	-0.655686044774	-0.741809095069
about	-1.36908099295	0.352830972627	1.03498224628	0.701324132848	-0.033952256145	-0.00711124912558	0.979265991241
about all	-0.121635675073	0.889125819695	-0.661621107217	-0.449032250053	-0.883661624879	0.829580801881	0.247654875775
about an	-0.751861670026	0.422113140106	-0.161020704144	-0.119024428523	0.102724473661	0.241034290072	0.727561309847
about anything	0.136541396087	1.27035225839	0.111225538614	-0.650580190414	-0.145012293977	-0.661574024032	-0.405486002445
about being	1.10556607916	-0.314840087026	-0.774018871566	0.563403192527	-0.266269051743	-0.0663620119535	-0.459872128964
about everything	-0.697420415584	-0.685626859086	-1.11506314895	-1.38173887442	2.38267432503	-0.176832671495	-0.287192702251
about getting	0.0575142701299	-0.327990661931	0.877921351849	-0.0872329464619	-0.472558250801	0.228272057503	0.414382279608
about going	-0.479230334923	-0.0518508579286	-0.279788505815	0.123010498725	0.298554354293	0.148006476944	-0.00146629148773
about having	0.383940067577	-0.317910082801	-0.260546338724	0.933033828435	-0.360514488164	-0.674099710104	0.0817196723149
about her	0.651543053177	-0.0463837243204	-0.116881759015	0.572370316624	0.824173526131	-0.449068000128	-1.85144483296
about him	-0.482801990033	0.393059809275	-0.96229957489	0.298098363414	0.0668591359916	0.393941853056	-0.21618713511
about his	0.126836303935	0.419768209847	1.10231444491	-0.744919070162	-0.148341652036	0.251684385993	-0.597891508927
about how	0.664091529938	0.352923738092	-0.438710879795	-0.0729376987165	0.121034601697	-0.686651145648	-0.50307230326
about is	-1.01678764442	0.882902388713	-1.16313221334	0.414613520633	0.169984056039	-0.582028950073	-0.260291980013
about it	-0.275722857844	0.173871837782	-0.185193958147	-0.575428296715	0.50134880553	0.445943315776	-0.261964534301
about life	1.20625298115	0.179044404945	-0.35250228989	-0.906920069406	-0.0686077541183	0.440101511667	-0.788295203188
about me	0.68689786366	1.05413417494	-1.75891215523	-1.4870512691	-0.0961674334875	0.359410205174	-0.155447614598
about my	0.174411695373	-0.25632572781	-0.530671476413	-0.159300057588	0.232698302983	-0.565886114787	0.550149637824
about not	0.386650217364	0.0586912137279	-0.0213319011243	0.578399931244	-0.573882779396	-0.463463733095	0.103042699319
about now	-0.999777709363	0.535522399829	-0.603399115537	-0.0783368668086	0.784798132061	0.205193516268	-0.759580621168
about our	-0.378418468144	0.158824542833	0.936532926174	-0.176739171189	-0.517226905769	-0.637250392867	0.627537314549
about people	-0.411117563068	0.074520766955	0.334388048648	0.518728301524	-0.528631714561	1.65190803017	-0.211997994843
about someone	0.00221073217019	0.428958714881	-0.318085618818	-0.601546347944	-0.396815941848	0.886639654428	0.556105124184
about something	-0.810103144257	-0.636165914307	-0.443458247781	-1.27981393291	1.4060995734	-0.638622756483	0.739908199592
about that	-0.30320028928	-0.749718514723	0.889271030585	0.133643538746	-0.255455144507	-0.0058943144542	0.849984280001
about the	-0.420985527508	0.30436813849	0.521228673768	-0.20414896159	-0.298034862804	0.488297862022	-0.0412965305434
about their	-0.738352896274	0.464852602787	0.33924300023	-0.0628960316862	0.819885793039	-0.165992485047	-1.15190024086
about them	0.154046532587	0.220690522016	-0.916150808565	-0.704490873563	0.235511296801	0.245148299342	0.266986149465
about this	-0.390502310206	0.00961642939003	0.576473382084	-0.929113573895	0.153764360455	0.311414651832	0.744837190302
about time	0.372899552814	-1.03358949239	0.587240040825	0.56275649689	0.688147567401	0.417450247646	-0.613054652923
about to	-0.290740864036	-1.82887198903	-0.765413538517	-2.21262369135	0.498688767554	-2.36117148294	3.53087507874
about to be	0.440528701937	0.737394486271	0.218589882801	0.403651634984	-0.0712193393255	-0.269409802812	-0.357950966819
about to get	0.715299898107	-0.704668658962	-0.601369058214	-0.0758138916345	-1.09938238686	-0.319284040121	1.20153152739
about to go	0.282154725736	-0.534205548131	0.553354641971	-0.332000644097	0.123356047475	-0.087196297261	-0.292701953905
about user	0.984756162895	0.387732860655	-0.329699949569	-0.0782622793117	-0.435380319736	0.00816818360817	-0.267084704212
about what	1.03232288431	-0.0608236959062	-0.532228025248	-0.49687526771	0.952326925015	-0.923932450346	-0.130416368661
about you	0.995641327217	0.489121712606	-1.14821747545	-0.523637300575	0.185695945174	0.264278704185	-0.971703871819
about your	-0.419275954717	0.118219838164	0.163912998351	0.216251309939	0.753184429397	-0.0771171770245	0.0107591293227
above	1.20651242222	-0.403800227001	-0.834499212198	-0.672832665739	-0.282021909686	-0.267965030959	0.514868753202
abraham	1.61543035997	-1.66972627455	1.7592091402	-1.1168449073	-1.35167238186	-1.27320232853	-0.90047899369
abraham lincoln	1.23885799538	-1.44773174094	1.44783059138	-1.72098118452	-1.75427230802	-0.725373018691	-1.6342921729
abroad	-0.0398501614479	0.52229206641	0.158989681021	0.115370223732	-0.487793526696	0.0617747684652	0.374930038061
abs	0.703202049844	0.503226860636	0.187772986691	1.18978294114	-1.14124102862	-0.81592380975	-0.607159595122
absence	0.473112003952	0.964637079065	-0.481614138371	-0.7763906661	-0.538309142311	-0.749934553189	-0.223235521342
absolute	-0.943519726327	-0.830419520139	-2.71430550859	1.4456929894	0.39171633009	1.68606791159	-0.991202271009
absolutely	-0.676839682749	-0.657484115695	-2.89272429197	0.689322859904	0.590318323547	1.32245397783	-0.47009507834
absolutely hate	-1.2789316355	-0.578109191582	-0.127489333629	-0.124759424241	0.902094347844	0.178922481661	0.534782489186
absolutely love	1.35973705171	-0.664337103186	0.392260595639	-0.992771565051	0.595479995252	-0.769803876984	0.336305216001
absolutely no	-1.22143235487	-0.12212308464	-0.830691179075	1.00017134247	0.322917172883	-0.546000321823	1.26583509857
absolutely nothing	-0.413682569536	1.20484184867	-0.684683546779	-0.0631598744097	0.552889415607	-0.330696850836	-0.852810979462
abt	-0.366552767641	0.995258412183	0.509413700374	0.197069686275	-0.340512143696	0.0956715286245	-0.369019216348
abundance	3.55969599666	-1.17413767367	-1.37497832664	-1.00765294198	-0.963515408855	-1.08785163357	-1.63991054932
abuse	-1.78318478108	0.517593971728	-2.60704572892	2.7327625138	-1.63806519755	0.151557626859	-0.668225703122
abused	-1.60329777946	0.962659573686	-2.07851963296	1.86507442248	-1.82409018219	0.249133837121	-1.15030900906
ac	1.69658395979	-1.41325064112	1.08664423846	0.111600387597	-0.397640825673	-0.784190611979	-0.381769903226
academy	-0.463720947849	0.477914970048	2.10642913615	-0.888071426743	-0.652015526918	0.0195079649967	-0.484947060569
acc	-0.300985988994	0.604259837091	1.35425124712	-0.668176069212	0.169191505422	0.0772853402998	-0.632639483342
accent	0.0184399014606	-1.01503630744	0.734756787475	-0.0872977494454	1.4949349839	0.65726734171	-0.845635454694
accept	0.983443538583	0.468228894948	-0.536785716392	-1.14966372	0.0791986881237	-0.678767630741	0.163583927671
acceptable	-2.08116504537	-1.03897764784	-1.14499020803	2.63397545544	0.149073731983	-0.624323747832	-1.85097409622
acceptance	1.84543045485	0.62664932923	-1.82716199413	-0.803221140019	-2.27179671684	-1.03257788651	0.393347225093
accepted	1.88382557768	0.301024107059	-1.77252474245	-0.775550261884	-1.81445088667	-0.408430749232	0.879012451699
accepting	1.24626692764	0.475975020624	-0.983049022349	0.4524254047	-0.519073031692	-0.575562021763	-0.413039985835
access	-1.52139798686	-1.21869357368	1.10292808384	-1.53931082545	1.99200237575	0.104654388142	-0.395958533349
access to	0.138020815531	0.243703080662	1.14062951795	0.170467465432	-0.674086917413	-0.306740975706	0.960504493931
accident	-0.458637944494	1.45154371077	-1.31323017084	-1.02769486129	-0.399128925746	0.645663607131	1.18875153119
accidentally	-0.0557025521699	1.14254535569	-2.17700312229	1.2016390196	-0.805218028412	-0.665034898822	0.553310698087
accomplished	1.93609001613	-0.224318023746	-0.790170808799	-0.666345439977	0.0928281348832	0.487998390824	-2.30534839788
according	-0.83990918763	-0.100044927977	0.957105995717	0.271044777095	-0.230784806719	0.962481924329	0.25053416601
according to	-0.226874133685	-0.519483656823	0.594245092843	0.248885231424	-0.205036276322	0.968135577869	0.311816583463
account	-0.839249060496	0.279785207819	1.10944017048	-0.935357654254	1.25165544641	-0.00778390810516	-1.06907768288
account and	-1.24247648023	0.497938788636	0.276461830668	0.357337674274	0.570302325597	-0.0603880528093	-0.368322113634
accounting	0.395424017258	-0.595680684005	-0.128584979619	-0.216757111985	0.819216950376	0.0548063727222	0.295479343094
accounts	-1.13150660893	0.400995149309	0.202235088023	-0.578407084167	1.48758409006	-0.827784373741	-0.166757880446
accurate	-0.739163296137	-0.163855029651	-0.717991006841	-0.869760484742	0.228593411019	0.295902133309	2.45203314763
accused	-1.79478672545	0.129132339247	-0.659731047689	1.68767046319	0.310906858638	0.0942146717311	-0.216120495892
accused of	-1.20363687651	1.10453794069	0.0299033149473	0.10612218762	0.326920777583	0.0365515258359	0.0619032623527
ace	0.630501882831	0.0960746323008	0.55139612272	0.0880231214018	-0.547048374286	-0.692943278367	0.474830371033
ache	0.0946513226912	0.228149674022	-0.55744192372	0.954592652863	-0.0332322934885	-0.327524721375	-0.876452987581
achieve	3.12122208822	-0.76686073771	-0.747609604563	-1.29101935159	-0.845442908006	-0.877551925338	-1.50373558605
achieved	2.34455960444	0.405296035651	-0.47925306458	-1.63641546171	-0.891632947355	0.0321099463455	-1.53595686636
achievement	1.31199850018	0.328739472587	0.718570583911	-0.723706421229	-1.14940655683	-0.431848045072	-0.641773060569
acknowledge	0.155884302669	1.24200666597	-1.77287018748	-0.325703561666	0.31274252462	-0.988820083174	-0.380809592985
across	0.457374968199	-0.713969125846	-0.567300668771	0.829575508835	-0.23109053905	0.550551572207	0.519221516309
across the	-0.149093617041	1.35786821464	0.00503795970261	-0.991800514536	0.786356038848	-1.11034734525	-0.19200811061
act	-0.256881404803	-0.256940180122	0.613434605363	-0.27885495489	0.691323527018	-0.283156701354	-0.11375241007
act like	-2.08226190598	-0.0441123499639	-1.63791777964	-0.393471995482	2.28874416501	-0.662788540243	-1.50005988333
act of	0.770890947117	-0.290454008736	0.69434438135	0.227749483239	-1.89262027321	0.17916491008	0.395088823502
acting	-0.532463137741	0.327607082749	-0.523886469228	-0.630885061863	1.38551692336	0.38587548964	-0.428422146899
acting like	-2.70809418721	-0.918713356249	-0.884411597265	0.246107725357	1.85057823535	-0.356862899579	-0.722366009691
action	0.369416823927	-0.316302092317	1.50048697523	-0.372195530329	-0.503705331782	-0.238829672517	-0.362108577611
actions	0.497751579187	0.445290310683	-1.35703771062	0.26858798022	0.454556579669	-1.29814669376	-1.3314706504
active	0.253838168489	0.230776595858	1.04569575252	-1.93772489804	-0.00956454473082	-0.0705393612632	0.714827497827
activities	-0.349315786978	0.198447346039	1.29172525374	-0.0756966769592	-0.113336551521	-0.489136568383	0.596314486145
activity	-1.15466798135	-0.244372273588	1.87530809598	-0.0231849368821	0.337758612723	-0.535646998329	0.093983844871
actor	0.24509601589	0.188180401369	1.1283694289	-1.68617491126	0.533936751768	0.431297043459	-1.48586411683
actors	0.366560549736	0.771685859411	0.141226180422	-0.509956224018	-0.0700109490368	0.428054203088	-0.553489621641
actress	0.200668974699	-0.131459311265	1.18143861851	-0.0531720525982	-0.33012974461	0.223082626035	-1.10454691359
acts	0.113800639044	-0.726516844156	-0.139084830126	0.0594729453131	1.71554524235	-0.913997740144	-0.573498013947
actual	-1.58253762647	0.781774383668	-1.17845057009	0.0953370881649	-0.063947650175	1.55797711822	0.688504087972
actually	-2.04532401484	-0.175198909872	-2.36010510946	-0.254593139873	-0.444521702013	4.90302489706	-0.251825769974
actually get	0.550677734087	0.875707993564	-0.173584454009	-0.550859235004	0.470299904442	-0.258856128308	-0.236378946634
actually have	0.170232036695	0.803082257615	-0.86551682176	-0.138797360165	0.0388547233642	0.251966888618	0.147897393238
acura	-4.48954838744	-3.34657577628	9.70618452546	-3.2612366571	-3.34650180947	-2.00617462463	-3.38780286561
acura mdx	-1.16777866492	-0.963586447787	1.73757244075	-0.850533862274	-0.955090511067	-0.774974703317	-0.909126544529
ad	-2.51754428226	-1.73531231986	4.31424576731	-0.948782532113	0.976315142452	-2.08725097008	-1.98681772615
ad for	-1.2718656737	-0.108027573351	0.517060943759	1.22701325334	-0.778585139075	-0.238536893893	0.328897332203
ad url	-0.697999687515	-1.43785967685	2.01685817847	-1.31738769568	-1.58603794407	-0.576795230873	-0.800663966692
adam	-0.833952799615	0.293456432356	2.57625581166	0.359348967674	-1.35115860797	0.852382675303	-1.54134531667
adams	-0.277923688405	-0.751781289653	2.5281821038	0.377661272749	-1.5156873488	0.19450721809	-0.796812195022
add	-0.286010215329	-1.14237981655	1.11227161454	-0.738935623323	0.930726260612	-0.780561053449	0.609761256382
add music	-3.25984717672	-1.68434518095	-2.51686467949	-0.913105017904	-1.75258751213	-1.16525640828	4.94124960078
add music to	-2.9332332295	-1.40176403937	-2.41040727025	-1.04756760296	-1.98181065151	-1.07342936099	4.81440927615
add to	0.575309940673	0.209975417438	0.555771972158	0.156929458003	-0.444580895163	0.370015068356	-0.398203015643
added	0.814089641249	-1.05457242311	1.27089929068	-0.547516526518	-0.235525683891	0.0720965249356	0.0473026077931
added to	-0.431121486327	0.251608832849	-0.33388003179	0.528047448699	0.912055289527	-0.479564519989	0.709248130682
added video	-1.12219909611	-0.26724543016	1.25208264774	-0.59423314695	0.11021566073	-0.0569036562706	-0.680378295392
added video to	-1.11073801646	-0.263037559367	1.24173406703	-0.588533991839	0.115472766828	-0.049769855208	-0.678518901878
addicted	0.77813973595	1.40425655963	0.432350844811	-0.202782466313	-1.24507883262	-0.34475684623	-0.406043761149
addicted to	0.716477553289	-0.140641019148	-0.956219675924	0.0364005568127	-0.0262488473722	-0.133289171666	0.516128045476
addiction	0.814744362419	0.948205563085	-0.580499768397	-0.320136495371	-0.868899380231	-0.53873051007	0.72670327156
adding	0.217095384871	-0.815861739955	0.854556634205	0.100445687907	1.20178364035	-1.15749450273	-0.618123643545
address	-1.5935323211	-1.22451987329	1.2454390528	-0.524752095618	1.04179922693	0.886031785943	-0.318454869928
adds	0.725699392534	-1.48837162985	1.05620999973	-0.518703907051	0.959809912518	-0.662843503541	-1.38627219021
adele	-0.00699980635651	2.90684138713	-0.912438637437	-1.75089457928	-1.1760055014	0.628041569449	-1.65428644297
adhd	-1.47542256422	-0.917765993266	-1.30027876444	-0.997714399902	-0.357714513888	-0.181453788634	3.79662565045
adidas	-3.38996389346	-2.49770805665	6.81916477043	-1.53524774682	-2.60941883189	-2.08101524415	-3.0770409862
admin	-1.28465623027	0.400058653716	0.609163200829	0.733123743415	0.512218680552	0.0572328050078	-0.489545541454
admire	2.46943676606	-0.483904517269	-0.912037757581	-0.150421041683	-2.31981129616	0.600758891571	-0.338335837174
admission	-3.45991819723	-0.117165993126	3.766876617	-1.2787937549	-1.26919188881	-1.37259393219	-0.0378479829969
admit	-0.62674887697	0.942374539588	0.122122954852	0.416394097677	-0.757267578162	1.10395832074	-0.1810758959
admitted	-0.874087767206	-0.519708569645	-1.08773956727	1.50197974059	-1.61170490007	1.30632411191	0.981838044605
adoption	1.16600295205	1.38151246413	-0.878432193107	0.0987705273285	-1.12957385672	-0.556964366211	-0.928110537581
adorable	2.74872612548	-0.0108127412835	-0.419193176489	-1.90653499943	-1.98251969655	-0.138779192012	-1.10127115022
adore	3.09870558551	-0.745391119954	1.17620523727	-1.98858685852	-2.29982745817	-1.15241360917	-1.24122951799
ads	-1.09705706547	-2.65562080447	1.41835479036	-0.960666952241	3.49266567282	-2.57221625352	-2.3779022299
adult	-1.5094197586	0.20941588095	0.40984987554	0.268911784966	-0.610515862439	-1.41890741047	2.07319262563
adulthood	1.11986881601	0.363599279596	-0.977832379257	-0.804247790347	-1.98393262651	-1.05774343756	1.23355187792
adults	-0.534801648316	0.18214330745	-0.73384062901	-0.00697784696762	0.678640625563	0.625173094074	0.289590299012
advance	-0.102912914331	-0.95457524875	0.730912192895	0.417620228674	0.365058881522	-0.305273820186	-0.499322415527
advanced	-0.0185826244793	-1.13728210759	1.20712402593	-0.834825203082	-0.0479429962541	0.308839409284	0.435644923402
advantage	-0.815343228797	-0.0255863358222	1.58305748649	-0.014151556205	0.0306814333488	0.46689505202	-0.532083404184
advantage of	0.542332642776	-0.0940785830545	-0.166101430106	0.749565644175	1.00851037543	-0.70096525941	-1.74571424686
adventure	1.57712810983	-1.38657027905	0.439271640926	-1.49291368114	-3.01552582763	0.533529218711	0.463743724768
adventures	0.947407092693	-1.31177875814	-0.0391284396493	-0.627371956779	-1.45585367671	1.27750826257	0.697599892905
advert	-2.96132388667	-1.59273700048	4.33609182983	-1.88688571331	1.49408998685	-0.203144594576	-1.38704891062
advertise	-2.05007298709	-1.27120402709	1.18480294625	0.174851410248	2.18685434146	-1.34975644864	-0.837189142607
advertising	-0.517493844474	-1.46844389196	2.0068201246	-0.0879997760816	1.01896732726	0.1341156579	-1.20196221971
adverts	-2.98741621331	-2.12747298086	1.00655083231	-1.66281963286	3.65898290152	-0.602619505163	-1.01496033423
advice	0.984970013901	-0.486877885553	-0.915271282575	-1.03562848816	0.0332569816179	-0.576610821272	1.61423180752
advise	-1.38067114711	-0.921031839314	0.765301783395	-0.589839682774	1.25206978218	0.528727616399	0.502900231021
advisor	-1.19929360527	-1.9618486647	1.45192662505	-0.595564359005	1.19437375534	0.222656853864	0.355469663255
af	-0.0163624506636	0.318523418284	0.238682688662	-0.0814490384545	0.820755332827	-0.572895932332	-0.795192538736
affect	0.112615058364	0.490825740261	1.00361770293	-1.5593194278	1.14879043357	-0.694512745755	-0.155417365728
affected	-1.95221468857	2.06659297818	1.03900392082	-1.30113770544	-0.0629214285009	0.228609895215	-0.507712309586
afford	-0.296682452492	2.51694723411	0.395210909951	0.310756079655	-1.39412294591	-0.499887335588	-1.49266442798
afford to	-0.469116569141	-1.17468891909	0.0902295332547	-0.371242069693	1.67888524794	0.264102782051	0.277001085866
affordable	-0.830012828146	0.115549915204	2.96693016163	-0.830132652164	-0.821931335924	-0.931959684195	-0.539503638526
afghanistan	-1.73299716008	-0.147593572753	3.16540996561	-0.656713292889	-1.17465804775	-0.985264384018	0.0185250645744
afraid	-3.58643628829	-0.679854897474	-2.07069193799	-1.90035612022	-3.41839638294	-1.69455091505	6.77807444326
afraid of	0.059890138891	-1.86414222934	-0.304377732461	-1.15714321441	-1.81063705416	-0.44270727882	2.10377899345
afraid to	2.10898516476	-0.505909640067	-0.744253028499	-0.313112478158	-0.89328232255	-1.14474750083	0.435873119697
africa	0.974239580615	0.781505094502	-0.75060335148	-0.826385432879	-0.535266193505	0.214857924132	0.381412943369
african	-0.0672379439987	1.56088394774	-0.701499460722	-0.231842328536	-0.0420901922022	1.25769717543	-0.666619781042
after	-0.591352713641	0.588926979632	-0.179847069159	0.74759082818	0.426448673885	0.776589588282	-0.399493313651
after all	0.36828800355	0.692583095027	-0.0539189829538	-1.0618703316	-0.792735406198	1.31567457952	-0.564031624581
after an	0.643086698344	-0.209618176279	0.149844298929	-0.62145990916	0.33185960199	-0.43649232947	0.0342848891901
after being	0.475216385969	0.509409658668	-0.461202610197	1.00550591856	-1.12629716856	0.177650115783	-0.715442239576
after he	-0.698350713905	-0.261448426476	-0.620697920468	0.406100788977	0.644302092354	0.231758073545	0.00589366975262
after it	0.662610439266	-0.255687899954	-0.134426549195	-0.275660252665	0.236661879241	0.0236957848548	0.0233141880832
after long	2.81984467141	-0.628223439569	-0.160413883068	-1.53725256975	-1.0121195109	-0.510239773368	-1.4373921939
after me	1.93861864735	-1.94522573769	-0.687889117338	0.0540848148685	-0.396884211465	-1.43962095608	0.244660230509
after my	0.369485112121	0.349234068612	0.361513266692	-0.410125614505	-0.548730415132	0.360960845315	0.429123169875
after seeing	-0.125845165763	-1.54332975693	0.692061210103	1.39605914475	-1.51796911462	0.553653450432	1.33167446061
after that	0.315417708498	-0.632606967795	-0.486844434468	0.285395267591	-0.690914113649	1.43145925341	0.0313055498405
after the	-0.189534755885	-0.191414658966	0.327548668872	-0.106778647228	0.352779652482	0.348767203865	0.262787599916
after they	0.339141794932	-0.631118212247	-0.219873674702	0.433894276022	0.0201375299549	-0.294339186139	-0.190005600814
after this	-0.116522267342	0.586986603015	-0.958530832843	-0.20159052499	-0.926660317192	0.975772030957	0.78769497517
after watching	-0.0296792205875	-0.71663542912	0.276113423728	0.953919547103	-1.4005463419	0.806962611197	0.796306210346
after work	-0.316810308928	-0.148272090851	0.530004594306	-0.695391401202	0.424394225744	0.479823720679	0.771504733035
after years	0.058653728577	0.504488158941	-1.08047405259	-0.185027688055	-0.582118563949	0.279947379751	0.251666773124
after you	-1.18882594397	-0.206516658743	-0.238518131192	0.0879174703033	0.553575804217	-0.899651416329	0.904293617797
afternoon	0.94673786096	-0.288741619979	-0.251174491344	-0.807575225375	0.203291308847	0.0460711632409	0.0324150364167
afterwards	-0.55141069208	-0.791028803842	0.391735430685	1.17185011501	-0.113526999964	-0.118438751752	0.872953146623
again	-0.624117874561	0.31916394038	-1.98467504085	0.461794211647	1.32404114973	0.653695367291	-1.00198867179
again and	0.339480228719	0.0995685803986	-1.39755396235	-0.290620108685	-0.059481130747	0.448704658766	0.453291216188
again ch_anger_emoji	-0.095579261236	-0.265161058589	-0.417130471773	-0.914867539392	1.31544618235	-0.577145915309	-0.787407540383
again ch_positive_emoji	1.84596716663	-0.593659815662	0.0790925998563	0.455941291714	-0.545504744818	-0.449935793547	0.500891904943
again ch_sad_emoji	0.1533026321	0.231423996536	-0.710552478054	-0.0851964816573	0.172992368761	-1.37139379151	0.540650286736
again for	1.04079249633	-0.184852158249	0.205809788956	-0.0577616297784	0.56262628419	-0.232289839626	-0.842585353129
again in	-0.189207250526	0.0538573084249	1.08035048098	-0.713476134776	0.748106745787	-0.193571364816	0.730309931843
again the	0.378824399515	-0.640086677338	0.617094802796	-0.157694804276	0.967235896796	-0.693066990168	0.144632622432
again this	0.310271907578	-0.0676062572975	0.576599060667	-0.595073437145	0.355070577066	-0.117694011618	0.0666201005415
again today	0.0444013143161	-0.123928538821	0.39133281603	0.422543959105	0.727321166729	-0.172870059655	-0.435299214065
again url	1.78687440643	0.932847586651	1.52857069356	0.193666831496	0.0259596485619	-1.38370304743	0.204137236541
again user	0.182258795046	-0.226041884246	0.269462262048	0.000553181582001	0.776004114076	-0.218075209003	-0.485431909697
against	-1.82836529804	0.121658595805	0.0407958506968	1.19318347314	-0.109091840427	0.905275531651	0.581192460776
against the	1.09509670853	-0.168073704441	-0.907900551772	-1.07969346399	1.69962829477	0.587814986413	-0.815934804249
age	0.302276278111	0.755928578681	-0.717245824903	-0.0123884983364	-0.432375105008	0.594760824458	0.304974697093
age of	1.08289305926	0.262743994276	-0.500010394238	0.00400104453131	-0.135016862193	0.0105479302365	-0.486060946949
aged	-0.822649291782	1.19235103686	-0.0405815930641	0.961913885401	-1.83044431071	0.72184016553	0.168891846754
agency	-0.224012311897	-0.848519228382	0.921766887797	0.331286152702	-0.0864069024815	-0.0438505508782	0.400470134652
agenda	-1.25685333708	0.792830448135	-0.246377939422	1.95169881698	-1.55895349136	-0.314680715883	-0.558273608088
agent	-0.213623518234	-0.391483080133	1.31666990438	-1.27878057676	0.7127238042	0.958099314196	-0.777558495453
agents	-0.324166972108	-1.07816667476	1.04291155267	-0.723494024744	2.0083938815	-0.620531996174	-0.142330536791
ages	-0.111234761346	-0.189354475783	-0.105977425598	-0.249487345565	1.20502500359	-0.102121956641	-0.0732348127622
aggressive	-1.63460244548	-1.17016650749	-1.3922715845	-0.209896666766	1.79619641915	-0.689345786002	2.24302184012
aging	1.42242383197	0.374527600799	-0.0517319643863	-1.46638395063	-0.386988517673	-0.708901497103	0.775436419591
ago	-0.525998719347	0.42067103019	-0.0161548470846	-0.571718035948	0.655417495736	-0.247729982803	0.358529976161
ago and	-0.713662771093	-0.127408029369	-0.0200926836977	0.588549435703	0.494995795109	0.751334646914	-1.22875258396
ago today	0.0678215124462	1.82882857116	-1.31104000164	-1.28594959381	-1.73044956222	-0.982132177441	-0.268356251914
ago was	1.91461266234	1.76513032719	-1.30932595674	-1.24070995423	-1.38457566263	-0.71603831094	-1.20987939402
agree	-0.084118042549	0.074483025891	0.377517920991	0.303405839436	0.495298495946	-0.0447036696989	0.0744367580297
agree with	-1.55162438387	0.664680049211	-0.14949409069	0.611413168719	-0.633643874941	1.69955916792	-0.0576934876332
agreed	-0.0117071818653	-0.0787331773948	-0.119298157396	-0.0978695652253	-0.414435147584	0.876985272536	0.728395618781
ahead	0.746839057823	-0.924633484049	0.230325082977	-0.920553202068	-0.223940706818	-0.568286279587	1.06124073532
ahead of	-1.059341282	-0.0442436878794	2.02697710468	-0.544871912469	0.331153213948	0.531925404525	0.0833054665504
ahs	-0.198466552859	1.01047560044	-2.46280610237	-0.837145039583	-0.733421799555	-1.49500661471	2.38543237074
ai	-1.21979336964	-0.702067812432	2.20394203255	-1.37754367456	0.270057468722	-0.487735565949	0.887019160511
aid	-1.21535708721	-0.735615136014	2.94836514072	0.0994668628915	-0.172444234081	-0.677414331981	-0.350212937318
aids	-1.08865706379	-0.118540957535	0.493038602871	1.7804467764	-0.6776549559	0.543609522966	-1.13058613647
aim	0.8910130143	-0.364913296944	0.461624725774	-0.141555350652	-1.16507428415	-0.0881290127331	0.54534441036
aint	-0.468818351488	1.00190522937	-0.0103442179697	0.130453495667	0.338990828938	0.0603058718736	-0.376812047643
aint even	-0.100274632002	0.811568680417	-0.148603611464	-0.422541822482	0.814193480359	-0.910331073083	-1.06445519757
aint got	-0.731664459754	0.870635868546	0.714753093313	0.169495903945	-0.359405921977	-0.193697945197	-0.874983544026
aint no	1.4596463984	-0.371515942805	0.72394103913	0.536564615011	-0.629218101139	-1.41428666804	-0.0305966947854
air	0.404705978934	-0.689307426565	1.36494710829	0.599585230556	-0.555230886192	0.0190337280577	-0.297600032691
airing	-1.20667145306	-0.431652469088	2.37559133584	0.0492931445294	0.366251260337	-0.959390598565	-0.78887180901
airline	-0.927592604186	-1.27398560695	0.709937602845	0.290118386813	1.57009760693	0.0461364487949	0.0199630073259
airlines	0.415367172909	-0.911530184975	1.9370489108	-1.37065327021	0.85680685954	-1.62295519014	0.00586189104705
airplane	-0.0868853597138	-0.529185266472	-0.356777295673	0.791485938473	-0.0158151775893	-0.860476824668	1.4362612183
airport	-0.258580242674	-0.0699104842141	-0.590305653436	0.640422615953	0.162435429686	0.730885477906	0.542974489072
aka	0.259354420177	0.353455980846	1.06461227948	0.51423715985	-0.383930774133	-0.287184308474	-0.508917954215
ako	-0.334666334071	0.436317466664	-1.7496914203	0.838626045903	0.657010103053	1.01516526814	0.111100732083
al	-0.754862386802	-0.759070270546	2.49090676011	-0.77186996301	-0.573295167203	-0.486760035607	0.276596883432
alabama	0.183821674369	0.112965437014	0.500640146042	0.183573834767	-0.768113045479	0.697078401689	-0.382942387757
alan	0.0636335817781	0.283840091048	1.45615475628	-0.585659152625	-0.877701560482	0.301442424682	-0.468371355876
alarm	0.11035495333	0.641478752797	-2.61524254752	-1.0718472973	1.09814821281	-1.64357941809	0.105037696272
alarms	-0.546750703865	-0.0234974523088	-1.07719738322	-0.997618211906	1.02600946749	-0.359234068986	0.681578298938
alaska	-0.728375564691	0.0956273187712	3.9017100247	-2.20274262887	-2.31762742511	-0.992164952277	-1.23599964043
albert	2.0466546539	-1.00025290425	-0.0814830641998	-1.36266532487	-1.00607020683	0.0114366051404	-0.460649990758
album	1.03610634041	0.438139779538	0.000409772071072	-0.805279176456	-0.844703718236	0.157512959634	0.767088333546
album is	-0.288410853697	0.534385235611	-1.0626674853	0.139132607969	-1.03306592994	0.888519197991	1.1185603379
albums	0.595167912249	0.617632908536	-0.507183046054	-0.818274471033	-0.114097295768	0.248668041892	0.30876913643
alcohol	-0.966996692073	0.866493954571	-0.103914107732	0.322838577338	-0.163135875663	0.881971771114	0.159370458436
ale	-1.26225728878	-1.65223242116	3.08202608528	0.909485324364	-1.27930856671	-1.30903157295	-1.97235587584
alert	-0.897023573779	-0.624601470329	0.491366183221	-0.199992550159	-0.400729462981	0.905116985974	1.98233349778
alex	-0.172188648788	0.317792114665	1.54116933398	-0.852190035244	0.342670081376	0.457215984276	-0.508275121883
alexander	-0.72631620288	-1.25319204436	3.72596920569	-0.382142017569	-1.08759090899	-0.0657536929628	-1.50034315489
alfa	-3.19984887091	-1.66559403117	5.84112291732	-2.06734710559	-2.10760593204	-1.42925439081	-2.69821843344
alfa romeo	-2.01742828784	-1.68665904972	3.22375006202	-1.46728735289	-1.21716861628	-0.758828239154	-1.60643150931
ali	0.712623976046	-0.569650355219	0.800422979549	0.260914383525	0.0466386848003	0.193140062838	-0.653973849748
alice	0.0479803948252	0.963323996101	0.545291135532	-0.863486134897	-0.119159419998	-0.355878060619	0.577013808144
alien	-0.659906127541	-1.10624914602	0.997635442074	0.59622548208	-2.3319814101	-0.301058689578	2.40800011522
aliens	-1.28902761842	-1.87943164734	2.55872998617	-1.60912346718	-1.05641656419	-0.100386608401	2.32737371844
alive	2.09975886447	-0.252205969986	-1.5974299396	-0.143105164875	-1.99546740137	0.288289751028	-0.150817960045
alive and	1.06631155286	0.294546001484	-0.0180448479671	-0.785212407077	-0.110480937498	-1.19530051055	-0.704371142952
all	0.362201919534	0.399958119827	-0.785386261915	-0.0740037627276	0.667494618293	-0.666287995181	-0.223169217535
all about	0.509867953003	-0.419221683298	0.734725640201	0.273256128838	0.232993435393	0.0583885544647	-0.899110711274
all about the	0.466803316956	0.344897023036	-0.378393230882	0.667574096823	-1.25086485997	0.51718871381	-0.0973854237174
all and	0.332038468915	0.552218079197	-0.0335538331011	-0.327730205723	0.0715981951326	-0.352785805678	-0.876366424801
all are	1.26468333102	0.0864723776168	-0.835320673811	0.20055633734	-0.542249564629	-0.323273159642	-1.1512166458
all around	0.850010223737	-0.283644413167	-0.0590508400964	-1.1002725385	0.616945893902	0.0343994963974	-0.155251345495
all at	-0.0645634157459	0.958317319138	-0.291667340356	-0.109932711441	-0.671374759619	0.944510992755	0.169504456026
all be	0.979687288004	-0.71344664363	-0.430892841556	-0.621522171865	-0.229455450295	0.761857349477	0.674195036042
all but	-0.878705407419	-0.0463525251363	-0.506294125323	1.61654029162	0.412302840031	-0.608282451686	-0.309077879898
all by	-0.13951393364	-0.0996935290542	-1.0846011361	-2.00209360974	-0.361293300123	-0.228362769645	2.25197666338
all can	-0.760904635795	1.11571264814	-0.152992908621	-0.293690795039	-0.281361360992	0.556766539213	-0.162518791104
all can say	-1.37733719836	-1.09838068279	-0.915626882685	0.475922985874	0.128212492082	2.2894795697	-0.347164006579
all ch_positive_emoji	1.8802817509	-1.18101329392	-0.475871733365	-0.328576219578	-0.887292657438	0.495081589334	-0.319197330528
all day	-1.37280058511	0.330743272595	-0.325154165989	2.04464007944	0.902423896744	-0.104353322549	-2.19777834156
all day and	0.832213677416	-1.33387055543	-0.348306449974	-0.175896179931	0.0811018889284	0.419328452909	0.437584290534
all day long	0.407490852632	-0.316975462767	-0.22264788118	-0.0904763554664	-0.0951351355411	0.850828453787	0.159750144868
all do	0.0973932876395	0.785868605232	-0.478314380394	-0.268659477944	0.00320925965404	0.069070850823	0.0901982261096
all for	0.176096398181	-0.27834014649	-0.703457485641	0.938468847815	0.0596277078218	-0.311109160187	-0.659096788963
all good	0.785525194656	-1.0615920327	1.27945791356	-0.657259831443	-0.479659260963	0.668001080262	0.471025733198
all have	-0.109502133683	0.777316564861	-0.0651070880239	-0.219368083219	0.0712725543855	-0.31952677571	-0.0572288553307
all he	-0.379415757188	0.421687316747	-0.133735984944	-0.676734809665	1.263713806	-0.788506259818	-0.0286680615247
all his	-0.932211995824	0.552287767384	0.121868927781	-0.430644481401	0.289868023159	0.770895313075	0.277352676986
all im	-0.376113584618	0.105821279411	-0.103909690532	0.578697096748	0.367335952034	0.594998645619	-0.505980806372
all in	0.806138886035	0.015446032544	0.293800559644	0.336579788858	-0.465735146326	-0.567816139835	-0.429737481588
all is	1.96792752652	-1.03347170353	0.240029817677	-1.0588547404	-0.640103940731	-0.365587512526	-0.169758198781
all it	-0.00972835242323	0.493200285578	-0.762292229038	-0.407851856534	-0.115339166412	-0.235894496927	0.435580157335
all just	0.658480123527	0.857874992002	0.044641495073	0.191257567857	-0.506109815731	-0.456586914782	-0.934589747125
all kindle	1.35092847797	-0.837045070714	-0.638215284066	-0.298902800485	-0.613104218305	-0.397760278942	-0.731027907193
all kindle books	1.3591690904	-0.812377776661	-0.775727773185	-0.295298570906	-0.527976603691	-0.392714383614	-0.714799122688
all know	-0.411183981779	-0.0714081517871	0.388398871534	0.578360921812	0.0595091266752	-0.168809309853	0.0153799519912
all morning	-1.00182499549	0.137141299617	-1.01425722687	0.853776389087	1.62886630652	-0.38126374019	-1.03456994446
all my	0.291074838463	0.445478082124	-0.191767760194	-1.07333842311	0.0258246308248	-0.327097001999	-0.0921418280497
all my friends	-0.757820445705	2.10033079387	-0.426605103841	-0.453536845881	-1.71068666917	0.130218393241	-0.609422290908
all need	2.42870882061	-0.391858253921	-0.926802667576	0.664335017523	-1.0627451333	-0.502395371551	-1.09319660115
all new	-0.952027497339	-1.46386360997	3.01742101561	-1.55216323388	-0.188742268525	-1.09475217603	-0.746490660247
all night	-0.512350220997	-0.469086026411	1.17086519094	-0.0481127802319	0.897966316827	-0.261518324205	-0.113163577929
all of	0.272101780114	-0.211933748386	0.901926121775	-0.241103980161	0.867768125571	-1.00486416631	-0.374642312236
all of my	0.43166506467	0.523676267943	-0.757048086815	-0.475446952914	-0.315469514707	-0.016557962877	-0.789081526159
all of sudden	0.470008092127	-0.665688751396	-0.377970490818	-0.365894521482	0.613465603889	0.509896996666	0.00150505126872
all of the	0.164987320559	0.105995561312	-0.418109049088	0.255766866347	-0.0799434927051	0.391365482097	0.0523986426022
all of them	0.492222154817	-0.727820531543	0.779146057989	0.0240344211091	0.00182010951083	0.11919958064	-0.0785041571911
all of these	-0.143484233599	0.557126088683	0.0260701537652	-0.299839668474	-0.0675317594612	-0.53630523151	0.532917456353
all of this	-0.175372944231	-0.119709892201	-0.10091598552	0.0706540230562	-0.0484354310518	0.845293693665	-0.10605598014
all of us	0.889745143559	-0.0876774345546	1.86044727087	0.234741615131	-1.82445709423	-1.19770355871	0.00468015561928
all of you	0.360673991992	-0.291261713656	0.0597704969543	0.00134938661859	-0.418925183584	-0.104997296963	-0.0583928211806
all of your	0.227567587146	-0.0792225106705	0.0784224377329	-1.45747779158	0.901677800695	-0.906222332792	0.445260264411
all on	0.05495029654	-0.0646074648804	-0.467008732024	0.537729222977	0.101467758219	-0.216369994148	0.402562862272
all our	0.0261120517696	-0.501506630158	1.57801797874	-0.45207318876	0.348982198906	-0.1994932884	-0.469830309763
all out	-0.361703898984	1.09337050207	0.329696420288	-0.790226127018	0.0717922982686	-0.37864712826	0.262145777708
all over	-1.02791138386	-0.892813694869	-0.24501237978	2.74538626476	-0.437946685475	-1.10683633911	-0.98012805921
all over again	-0.178379807667	1.32876476213	-0.767506169292	-0.864971947604	-0.237684926278	0.325996399092	1.09134827849
all over my	0.181854667456	-0.218727962194	0.555996555399	0.866603601639	0.409957565896	-0.642530782846	-1.28779271491
all over the	-0.313342459522	0.405389245898	-0.526447185519	-0.0104124746362	0.185858159502	0.680126116586	-0.524642043009
all see	-1.88340408775	0.606005112838	-0.580221079255	0.595870651802	0.517169230693	-0.53704737864	0.929849763041
all so	1.44746091887	-0.261207043208	-0.931687473119	-0.626663653491	0.00430447064645	-0.249648072305	-0.568466257148
all star	-0.836194863655	-0.0786383052128	2.14543198383	0.724105719996	-0.750594905795	-0.233357547383	-0.923605274551
all that	0.69644718995	-0.276512132401	0.530393063538	-0.0808714582659	-0.0788090066006	-0.0784852266261	-0.359974288027
all the	0.00974974164519	0.672725766744	-0.680560999969	-0.257661523422	0.375267499435	-0.418070607578	-0.471981754216
all the people	-0.383882716315	0.0745498575914	-0.0185183213828	0.253344938275	0.191476700861	0.430774908756	-0.115182568211
all the things	0.944815950928	0.349933922362	-0.0608880042982	-2.00893389962	0.0156242307856	-0.973485425468	1.21209892294
all the time	-0.986777387594	-1.18031593012	0.00312256852648	-0.594496924501	2.70673874503	-0.395902705256	-1.34037688237
all the way	-0.632595510074	-0.792806462663	1.49286229217	0.209728433645	1.15919476401	-0.0808660498535	-0.624651566814
all their	0.192406723996	0.0598331687925	0.11562491829	-0.103451372821	0.246866108986	-0.101370622819	0.341968265345
all these	-1.18604553786	0.299470603691	-0.842138444427	0.296024200533	0.241350680987	0.440546967919	0.0238760189705
all they	-1.39148836577	0.55614889202	-1.52961590445	0.0491016376828	0.837710452721	-0.917946977807	-0.638710824902
all things	0.992539981932	-1.5095119882	0.651670102258	0.281116539713	-1.37888107782	0.4956366279	-0.316124917455
all this	-0.446779526202	0.67247968536	-0.0216257705542	-0.160109664322	0.24999020722	-0.35454644747	-0.0426060897473
all those	-0.316528554138	0.858154139245	0.413577348977	-0.059489491807	-0.488528094578	0.478573618216	-0.269546637488
all time	0.344828686943	0.866389043814	-1.18392361118	1.0398559866	-0.673301740697	0.857183215694	-0.980738281351
all to	0.177926529125	0.629476736791	-1.08843480905	0.280258059673	-0.467875570028	0.0781132901337	-0.340100795389
all up	-0.795937226636	-0.525245601916	-0.0589043638211	0.529487337074	0.763018050315	-0.0990716047411	0.612968972712
all user	1.31212808823	-0.963392335327	0.238600900717	0.0875342900095	0.349137675794	-0.10249097862	-1.2504138854
all want	-0.795240463888	0.653861643607	-0.871624716934	1.50877359789	0.0535058700859	-0.945281491036	-1.30773842686
all want is	-1.83170548078	0.388968024848	-1.31325742287	0.289722448078	1.30522883862	-0.559567545777	-0.541483034709
all want to	-0.909453395305	-0.904798401222	-0.362168225494	-0.244413724181	1.49091584756	0.753423861113	-0.512529992788
all wanted	-1.28648688259	1.3674298693	-2.12487728039	-1.30287727585	1.65887179413	-1.46149874229	-1.38361279533
all we	0.922920758741	0.502644157753	-1.13919272156	0.549062823829	-0.460570474512	-0.341174422241	-0.47042294215
all week	-0.28281892893	-0.0936711590877	0.3262775875	0.943961317174	0.998905609941	-0.377483509981	-1.35167413743
all weekend	-0.744288489387	0.515692923826	-0.160539840074	0.537435594339	0.0177818167991	-0.271733145982	0.912022713411
all who	0.824957316492	0.562174181382	0.385810560068	-0.404590420869	-1.75641618222	0.0386047124918	-0.735511673933
all year	-0.0312932684922	-0.351160913067	0.386934766307	0.345040750765	1.64128892249	-0.543928174348	-1.20251526812
all you	-0.705487889693	0.357912796642	-0.448773305178	0.0823620972875	0.660354420585	-0.576177324216	-0.728382219012
all you need	1.90218564467	-0.818970622552	0.723666260919	0.0543238993681	-1.95210473846	0.253483759818	-0.313948363585
all your	-0.15453298706	0.202511361206	0.349461492087	-0.427714151898	-0.0797716672846	0.23409481881	0.238583258249
allah	0.779745712889	0.222760312352	0.250867352228	-0.268803632083	-1.45950352783	0.209401776627	0.376357187936
allen	-0.230664796397	-1.08389109025	1.61410566922	0.350622434456	-0.711017253944	1.01055929764	-0.199118490561
allergic	0.105599489971	0.898199042005	-0.433977727755	0.288896760322	0.113012332745	-0.626786316693	-0.363521888451
allergic to	-1.0994829069	1.11154250499	-0.222188821039	0.142468477232	0.21153668521	-0.0365744524727	-0.489064149852
allergies	-0.967774998203	-1.42911547907	3.15393453924	1.37190906551	0.535039512704	-1.9792096557	-2.44623696062
allergy	-2.38966412677	-1.83545030246	3.96599160219	0.596263377326	0.242531563044	-0.0582352938396	-1.99444798498
allow	0.2136330505	0.133880784159	-1.15953285379	0.75384275865	0.177339065681	0.0988418812255	-0.724385674324
allowed	-0.13409396418	-0.282818025267	-1.21379239325	1.46856550257	0.273682435798	0.053674691933	-0.52027875478
allowed to	-1.16191638721	-0.468092100268	0.411148253349	-0.0900915256973	0.67472465444	0.335795790312	0.59658316593
allowing	-0.430643485856	-0.392864176744	-1.7936155442	1.26385148324	0.570171547295	-0.107835963775	-0.00280112790457
allowing me	1.64020610359	-0.545212729446	-0.66377360706	-1.21222704523	-0.0175844174732	-0.673237003303	-1.50894218645
allowing me to	1.45348735592	-0.523789493832	-0.787686215248	-1.05881791911	0.305605994419	-0.662029076765	-1.19252948409
allows	0.851779935476	-0.637706464021	1.12308399844	0.768449137514	-1.26272178676	-0.316408256883	-0.563287342507
allstate	-4.87548851246	-4.12024454475	11.5548725424	-4.24424916079	-4.59139709175	-2.92458611563	-4.00420469537
almond	-0.599585322307	-1.13273978498	2.58687616005	-0.207828457034	-1.28315340457	0.0573321681653	-0.125373657641
almost	-0.0714279804276	-0.402766592405	-0.969819767713	-0.058684677766	-0.331038102245	-0.510103738281	2.47009464571
almost every	-0.0975810808456	0.649914124023	0.0289503339653	-0.529731589743	1.02574021292	-0.137140658097	-1.09926317084
almost over	-0.891972013468	3.19719857411	-0.601661353409	-1.69127489695	-0.512434073854	-1.68416623545	-1.07729483121
alone	-2.18287620515	2.59159171256	-2.62860793548	-2.34916170511	-1.52016837794	-1.96015112126	2.42174839384
alone and	-0.68822715704	-0.0208675235864	-0.241188653802	-0.537503316546	-0.258230711834	-0.511533250455	1.10976016685
alone in	-0.835632150551	0.680227978918	-0.116523282049	-0.896597869739	-1.55163494734	-1.97884012415	1.57658092762
along	0.82351231015	0.116016972242	0.370733130948	-0.367501393471	-0.378110902055	0.576868156841	-0.581305765819
along the	0.378644771482	-0.544941041745	-0.68028257207	-0.0475160537775	-0.198921085724	-0.462168635984	1.06691844203
along with	-0.587766560568	0.183130781811	-0.275284917967	0.0995648805048	0.65320770483	-0.288357463671	0.845646249771
alot	0.0566770468533	0.466961319431	0.918994300041	-0.0985902705474	0.112755409197	-0.688729384541	-0.267764920324
alot of	0.316978675642	0.655201741422	0.936493773822	-0.211406347587	-0.677412196071	-0.92649063653	-0.378718081103
already	-0.874476414312	0.189951574706	-1.1041739547	-0.169459538421	1.11813278377	-0.885941615973	0.975667950017
already been	0.740929522679	-0.400603060889	0.190613089863	0.48947177555	0.0186823315623	-0.868606750477	-0.19752589235
already have	1.49581848581	-0.210061724602	0.847628276239	0.144300689432	-0.581630920598	0.170862245077	-1.01761111609
already in	0.00177462940731	0.998411903862	0.182110732982	0.251811645779	-0.0691144274951	-0.678294252714	-0.312010988936
already know	0.42294288462	0.540301905525	0.342526301175	-0.0667813586325	0.286799878135	-0.331276015503	-1.18851236621
alright	-0.413381768695	-0.426462750999	0.549264857716	0.0397810700977	0.443725084779	0.360912022941	0.826829976186
also	0.00632426275073	-0.556392394379	1.25551619624	0.593544249788	-0.452808803646	0.108032949992	0.327578920645
also have	0.308914526282	-1.07124066459	1.30415026306	-1.06831116488	0.932143975318	-0.965946766075	0.491581813808
also the	-0.236835500017	0.0517162468757	0.425995253401	0.0463979385129	-0.215160834462	0.943461284759	-0.132377956564
alternative	0.295748461824	0.0726423584329	0.968002036441	0.147402813473	-0.193340935683	-0.249732210927	-0.0128390190331
although	-0.403115686409	-0.158599684449	1.43706835741	0.336178941049	-0.0576040794649	0.154108737521	0.512656623874
always	0.916563479973	-0.134555061448	-0.737074239058	-1.24330567695	1.76334905813	-1.44561493665	-1.57938750339
always be	0.392925938248	0.892489666742	-0.947820139098	-0.631395557668	-0.780828767359	0.531556480302	-0.0598530816673
always been	0.821972314932	0.802030933364	-0.138682161445	-0.291380835291	-1.45689826184	-0.161108447267	0.615938131362
always do	0.0756777289789	0.0243141250441	-0.612402764492	-0.0167289765084	0.419430034777	-0.745356145293	0.492648681546
always feel	-0.359550499562	0.7391974739	-0.101080648766	-0.353075856996	-0.565945365063	-0.664659168629	1.99323630902
always get	0.127395910903	0.632026593201	0.0312675396472	-0.147085686384	-0.212205304201	-0.38041719791	0.300594636822
always good	1.32197049447	-1.21535993904	-0.0962813517261	0.0519875142537	-1.69685133505	1.15577733093	0.546606408457
always has	-0.027571818229	-1.1324479056	0.168614351706	0.216936154015	1.51349322109	-1.11715485818	-0.418189197993
always have	0.115827337281	-0.0817781610756	0.131326520946	-0.105648092355	0.332595311214	0.0122771555131	0.179891136965
always have to	-1.93387874523	-0.16953093587	-0.758835091174	-0.899265177284	1.85816349409	0.335002097634	-1.23040532337
always on	0.0787526509749	-0.316629651491	0.247732651297	0.0387332204982	0.681623819947	-0.896355010689	-0.365900668035
always so	-0.503837381735	0.408039309822	-1.01714626411	0.175542309593	0.275329338748	-0.446467472532	0.799079387877
always the	-0.692857839873	0.705053644236	-1.29066985615	0.481048422419	0.38736995393	-0.120243659142	-0.208919823223
always there	2.42675188459	-0.0813488500848	0.396575099938	-1.80471663045	-1.46061530935	-0.46828270526	-0.569174881341
always wanted	1.3781719714	0.311240944108	-0.372797685243	0.282978070351	-1.79335726673	0.737803937928	1.02977523541
am	1.43629059306	0.253422490234	-0.627873103978	-0.661203295443	-0.195995068901	-0.358785177374	-0.263426168929
am and	0.642530511858	-0.711360707826	-0.890689139389	0.072713163509	0.539755076967	-0.864880876378	0.291762458641
am at	-0.964219986945	0.911575285257	-0.0768108194593	0.589330583618	-0.205705185462	0.665711054841	0.0266205716037
am doing	-1.04424912966	-0.0219461568809	1.4158082238	-0.272508207697	-0.0269495031138	-0.666605187137	1.53568070017
am getting	-1.29117010193	-0.694863751248	-0.349935779377	0.486760807673	1.44344631052	0.512324220686	-0.507286215403
am going	-1.26232967781	0.275487474144	0.146790433392	-0.127837654252	0.467904222429	-0.263518159143	0.64174617019
am going to	-0.562720892495	0.760507411426	0.0439730829202	-0.599829273433	0.175219086993	-1.10110181935	0.14201741078
am gonna	-1.29835608621	1.53871939307	-0.993213603858	-0.369841446798	0.0969405125848	-1.06029585593	0.398610092262
am in	-0.0584296335829	0.678251590254	-0.212717715277	-0.70076813347	0.13614020068	-0.142380520661	0.292782600593
am just	0.552005570562	0.414252256422	0.606506457177	-0.366259012278	0.0760411905299	0.219729421888	-0.801459953892
am not	-0.545205725463	0.589666884693	-0.040256655956	0.0359296646406	0.651950032489	-1.11025024858	0.0155786357104
am now	1.44681350578	-0.19113051914	0.0812109161495	-0.591078166323	-0.89524092152	-0.0654825678207	0.226219950327
am on	-0.00800057535725	-0.279806350186	0.748678280985	0.021350220316	0.640243451498	-0.241751907365	-0.239667679041
am really	-0.465086139872	0.037035387388	-0.235601955093	0.155985056557	-0.370287022635	0.489082788973	1.18494724446
am so	1.2033014957	-0.132104881582	-1.01658717168	0.360054237649	-0.600210948259	-0.519199986092	-0.251590404107
am still	-0.936760045058	0.209518542007	0.478919704717	0.84483303276	0.628855581517	-0.425117108024	-0.686124824998
am supposed	-0.686828185189	1.22038269242	0.038666303621	-0.851144353709	-0.239688629732	-0.129105766441	0.29304375367
am supposed to	-0.621835290883	1.07587617748	0.0757635327262	-0.763446362863	-0.220610377205	-0.0984407128987	0.237095288594
am the	-0.194691087415	-0.076406284656	0.0255634813988	-0.088914052993	-0.156489564511	0.304695367363	0.638234054992
am the only	-3.5521025354	-1.32507953705	0.438744795411	2.22368006937	1.2163751543	-0.43585319287	1.02371927839
am to	1.26372194911	-0.150152088445	-0.769652874185	-0.123424619929	-0.280779287156	-0.229069470758	-0.314990660817
am very	0.235913953811	-0.0572920385093	-0.181108093296	0.837200950343	0.825661138773	-0.581464479326	-1.54720578838
am watching	-1.78754545897	0.138863692169	1.52487920524	0.942286089845	-1.192454841	1.24228669018	0.789485880102
amanda	-0.288170906945	-0.0683843172604	3.44446816721	-1.24957961479	-0.700434230351	-1.43779129055	-0.498559447048
amateur	0.403631640827	-0.314336862149	-0.918758031165	0.72528421308	0.348840215195	0.970580058273	0.568627517875
amaze	0.660426704442	-1.91012704444	-0.186696372019	0.370689826175	-0.503632911717	2.66281893711	-1.37431420667
amazed	0.162870988409	-1.69873303234	-2.41638419991	-1.07874032598	-2.83597560135	5.3603371826	-1.13245501086
amazes	-0.568751301515	-0.316813066331	-0.706887704673	0.126315504003	-0.147268769053	1.73102338992	-0.313075142848
amazes me	-0.505789537829	-0.0376823516987	-0.945856323921	-0.0854966497002	0.063057527151	2.03080532901	-0.73631503089
amazing	4.33960978714	-1.29071380955	-4.36789641214	-4.54799168734	-4.32835336281	2.3408460123	-2.9322647667
amazing and	0.17018487488	0.0436970972925	-0.22868895826	0.379198672665	-0.661276424717	-0.274660627472	0.434307839928
amazing day	2.25055505083	-2.26715584461	-0.608863922983	-0.712779978802	-0.819471895476	-1.08743440903	-0.652013509858
amazing how	-1.6426035838	1.37683992807	0.616131090145	1.27498063495	1.2158015441	0.297511283921	0.948794352002
amazing people	3.2838137496	-1.47560405919	-0.202511340028	-1.36826838659	-1.85486341893	-1.42912219708	-1.54664835166
amazon	-1.24444586692	-1.00624160451	3.88674045978	-2.07302854955	-0.609548793775	-0.312274591012	-1.24410838581
amber	-0.562438453532	0.85452901575	0.690490947371	0.255786460572	-0.486253617577	-0.467023032368	0.379757545781
ambition	2.17342531905	0.357555384806	-1.31987063819	-1.40692747443	-0.752820291689	-0.644100438789	-0.760178409232
amen	3.20511630991	-1.06757737151	0.0697998242494	-2.19421433442	-0.889191110139	-1.84091591898	-1.24560772291
america	-1.22903509867	1.57149436323	1.99985973649	0.794808462911	-2.60730327603	-1.11899911743	-1.1103862344
america is	-0.0374855158051	0.341261566108	-0.184782748876	0.453447948754	-0.0765731418128	-0.385048219927	0.619082115643
america url	-0.682519544844	1.78928146709	-0.356430576255	0.172210289947	-0.775665728364	-0.0419022264967	0.431332215717
american	-2.03904250813	-0.0716979127872	3.68885703149	-0.101806343683	-0.938633414522	-0.223991121572	-1.256137631
american eagle	-2.83984740391	-2.87868766623	6.06543844367	-2.70212865109	-1.76237965348	-1.64368332153	-1.49833906008
american sniper	-0.835472675873	0.486588182414	-1.46214168327	-1.56046205924	-1.003539649	3.61343091081	-0.670354606641
americans	-1.72127995694	0.717690909652	0.938741045814	1.27614723505	-1.46699999657	-0.299981468129	0.492680859696
americas	-1.44555830118	-0.64980270821	3.07756634787	0.132159491686	-1.4219260473	-0.0370466017073	-0.134107148817
among	-0.398884151756	0.739490138703	1.29554996406	-0.296848804759	-1.8135572843	-0.00790122658649	0.440758147968
amount	-0.94168267444	-0.0476576769863	-0.84895946171	0.671675462582	0.397961299966	0.96150116642	0.216979392179
amount of	0.276763286148	0.186670639086	0.077038455642	0.499840486692	-0.242038984001	-0.53479312966	0.0593175038075
amsterdam	-1.23485349237	0.759472155821	2.59479940385	-0.041454820381	-1.27554403334	0.275363837995	-0.857516097902
amwriting	2.4642200303	-0.960960334868	-3.852199697	-1.68554130922	-0.119177106697	-1.43248469821	0.741793483918
amy	0.653596265732	0.933317053407	0.966252527997	-0.907722626607	-1.0659959843	-0.352502315128	-0.328581960089
an	0.209278348653	-0.072390852428	0.0620965127317	0.312456397136	-0.200786320544	0.3912315604	0.482320276224
an absolute	-1.23464754247	-0.0769082746025	-0.241709110764	-0.268423264428	1.15814692032	-0.125428015167	-0.0866820164371
an actual	-0.0359918520348	-0.36795342534	0.490813590281	0.16547155836	0.0204432244195	0.181711538877	0.320301780808
an ad	0.0432627823773	-1.09993551917	-0.169464306674	0.786323706904	0.795919840951	0.272521372192	0.962067153306
an adult	-1.13905468679	0.369391073569	-1.74197233712	0.35071085102	0.822947048163	-0.72242237408	0.317187437501
an all	-0.689734469941	0.568586781083	0.0775517971366	0.567916102394	0.0677948569832	0.172754873886	-0.338187240244
an amazing	0.904673355462	0.792279197455	-0.428481643384	-1.80520117211	-0.762741116366	-0.769420339798	-1.28901337109
an american	-0.198781482155	1.0184835288	-1.09126482583	0.298694846416	1.43933441412	0.511404981348	-0.885824521492
an animal	-0.996876497608	0.653043390562	-0.719897077164	1.0207781397	-0.37834844986	-0.843868211491	-0.273039923228
an answer	-0.151712130906	-0.584029708274	-0.786855871265	-0.181506741334	1.14495222651	-1.04760537363	-0.0923597067109
an app	0.0945668799129	-0.0904238908877	0.79082473802	0.690664794885	0.601588204613	0.0935378910453	-1.57887193076
an appointment	-0.741349958221	-0.996069915301	-0.647067205006	-0.183026452715	1.70710715791	-0.467382906096	-0.620957852021
an article	-0.739087163648	-0.87415208854	0.0115349180392	0.966218937806	0.787227718664	-0.137095568412	-0.383104464598
an asshole	-0.47194477653	0.240607734665	0.330000540644	-0.318078120769	0.646709939026	0.739650251764	-0.318986600303
an awesome	0.648763154996	0.388141232853	0.493417124712	-0.740743597154	-0.936940679185	-0.707063188002	-1.18239009064
an awful	-0.190556702117	0.298606979596	0.281583463933	-0.403558288732	1.01158233343	-0.672993992286	0.697011123218
an early	-0.186117555747	0.650525601072	1.30371737001	-0.465827061084	0.355769922489	0.187707739328	-1.27035363412
an email	-0.0780757150034	0.189374944431	-0.0547933794829	-0.623721957932	0.307919761762	-0.303952447148	0.33436250401
an emotional	-0.0842487465475	1.13060498148	-0.0364734061015	-0.921217092176	-1.03609567218	0.962012032769	-0.511697668812
an empty	0.276967985854	-0.504117863659	0.288624089718	-0.517847394357	0.854791349891	-0.354393588485	0.6779195795
an end	-1.12545610519	2.01054266792	-0.742322297978	-0.101449341653	-0.500050270663	-0.00916433304221	-0.709055949641
an entire	0.541584590042	-0.175836192795	-0.0724993900251	-0.480563805902	0.632610090936	-0.323740822589	-0.366941805898
an episode	-0.564880187348	-0.839541977664	2.35573397126	-0.0103063597802	-0.200323183368	-0.309318092168	0.850528620525
an exam	-0.336171001654	0.877170546182	0.268222316574	-0.19286721293	0.992256417828	0.0798769161252	-0.356793709341
an excuse	0.970273169114	0.600810547333	-0.455257440656	-0.0630654764761	-0.93179041334	0.00539679277547	0.609723254257
an extra	0.828829005778	-0.103836022578	0.60512094009	-0.785370280807	-0.299513037081	0.301339953088	-1.14560876133
an eye	-0.273668725322	0.411660983493	0.687100455834	-0.587563175035	-0.952000606099	0.788037574083	0.341939120692
an hour	-0.743188628503	-0.818962295402	-1.67553153739	-1.30734522542	2.39275338786	-0.73883038414	-0.491608568537
an hour and	0.673748528689	0.643639990912	-0.441783881017	-0.0517122740374	-0.407188208598	-0.13981321094	-0.911981012525
an hour to	-1.08515268302	-0.502833110552	-0.517127284113	-0.131308838582	1.37731542164	-0.258470201041	-0.554097150186
an idiot	0.94731333009	0.746094580818	-0.271817384918	0.0614211900552	0.00514925294269	0.0973218632591	-0.807255018319
an incredible	0.39174453203	0.547477689071	-0.590036930254	-0.333119160602	-0.0262755234974	-0.503527823599	-0.45723942389
an inspiration	-0.0901746959954	0.619920277247	0.523782171813	-1.14549870032	-0.476779532547	0.274482998549	-0.754480392032
an interview	-0.295548595493	-0.412548575013	-0.464198345159	-0.281868888558	-0.516306306113	-0.506597772313	1.31766608012
an iphone	-0.186345891686	0.97320293923	1.03076748179	0.167380843784	0.124160804075	0.641093908978	-0.0990025590273
an issue	-0.616356539642	-0.41983968101	-0.123795072622	-0.262864495565	0.841463031026	-0.168522230303	-0.238868876431
an old	0.495307095448	-0.595612201225	0.22244748824	0.33041335656	-0.808956464607	0.632716717791	0.411247825748
an online	-0.418012057233	-0.448065512718	-0.768979468121	0.285512550509	1.52279156655	0.0893848365284	-0.511390394952
an open	0.781053267682	0.585932530617	-1.51637690842	1.31044159986	-0.470644362462	0.593422759021	-1.00001507488
an opportunity	0.623628987269	-0.158127096562	0.668078752119	-0.56055546232	-0.0401259367734	0.527124164219	-0.2493357954
an option	0.233095347884	0.0824377087735	0.497935043828	-0.150051504679	-0.195570340799	-0.618697700056	0.428671978833
an order	-0.548097914079	-0.982762456453	0.180791251177	-0.593641295179	1.37777873699	-0.251303765645	-1.2416396211
an update	-0.941376310386	-0.611812201516	0.0792613103606	-1.54717829689	1.35670533736	-0.290748723229	-0.00401619812195
an user	1.25699602106	-0.92132813237	0.62736614262	-0.419930658913	1.03525106869	-0.910361826177	-1.0796509036
anal	0.732910831331	-0.479830077658	-2.24364562796	2.73749857686	-0.418349530547	1.11835496756	-1.25344714279
analysis	-0.272271341607	-0.189194333528	1.58333933076	-1.5041874688	-0.0202516701847	0.00374782383413	0.777455113232
analyst	-2.31227347579	-1.25319357305	3.1436058184	-0.473453572009	-0.481165438905	-0.748780583696	-0.914743616819
anarchy	-1.7382580523	-0.753295765058	3.15784335965	-0.411711025306	-0.911099795327	0.714153762049	-0.215862811391
anatomy	-0.13385406432	0.98175964106	-0.574589425914	0.444530822542	-0.58986802538	0.521393128739	-0.211923956406
anche	-1.87202738289	-1.72685898614	4.25297893382	-1.4932603891	-1.63244587843	-1.45883579623	-1.43475281948
ancient	0.341144612937	0.703122003367	0.971508272183	0.169900375436	-1.46344218538	0.555684057975	-0.190258746227
and	0.445514292841	0.154021612507	1.01605829635	0.0329240848964	-0.6485724006	-0.751635774577	-0.377595030905
and actually	0.400502796216	-0.593814511314	-0.533328012891	0.419563441362	-0.00265360247322	0.960069188616	0.444866940441
and after	0.0177659115133	0.177087534261	0.13519994594	0.0260749305089	0.459049110717	0.325713135942	-0.256289336616
and again	-0.194696794142	0.328125612259	0.565427885822	0.0238701897722	0.670511438577	-0.222857444104	-0.822325696827
and all	-0.196172929217	0.70722074982	-1.12923826428	0.410892142183	0.321245803768	0.278830911981	-0.832494493462
and all of	-0.251815318506	-0.36948072352	0.0630809299595	-0.207947245681	-0.298881188604	0.250256456804	1.53520972448
and all the	0.119905586361	-0.821652143425	0.355592709676	-0.332267580594	-0.154192765209	1.18296541611	1.30835426212
and almost	0.0167009766077	-0.529148488644	0.300093558108	0.0993542276592	-0.803230417122	-0.179264208113	1.47429806215
and already	1.40091021358	0.115708950764	-1.81159085644	0.729152190398	0.672973731177	-0.593292146267	-2.06173498347
and also	-0.05422192128	-0.40657333155	-0.233824773483	0.122103713328	0.671546057373	-0.0721369903209	0.570338442968
and always	0.0292767641757	0.0446954694572	-0.380966057092	0.182473105225	-0.353204939206	0.903588050101	0.151920865277
and am	-0.551416814623	0.60473761844	-1.33454157723	-0.0606502824278	0.796451993562	0.217142562059	-0.0117670834473
and an	1.13129486301	-0.62562095663	-0.404161815618	-0.328101950913	-0.304918336915	0.446281099129	0.327466483797
and another	0.890809619813	-0.0515004687836	-0.731820009021	-0.294226314572	0.393819972721	0.3059239808	-0.94119036876
and anxiety	0.0957395438637	-0.689979480752	-0.895763924632	-0.479960570733	0.0367774219033	-0.308375882876	0.596234407119
and are	0.783937724291	-0.238572156026	-0.449807369327	-0.52254448704	0.0656187822161	0.62175812231	0.46210086956
and as	-0.126791431056	-0.533119128936	-0.736608654489	0.718785292943	0.710343353489	0.843205576616	-0.416925680493
and ask	-0.503915895019	0.735665839595	1.11587867914	-0.442108860204	-0.275617306805	0.448294174718	0.1387365624
and asked	-0.424673331397	0.502554408539	0.749975148769	0.142200473945	-0.566862802625	0.605768296405	-0.0542979669165
and at	0.567077226675	0.115066186804	0.149709749939	-0.491101695137	-0.0152582603833	0.382938569583	0.0494037923337
and back	0.687437805507	-0.0310597547752	0.0178823370148	0.350741128326	0.146297181787	-0.309662799373	-0.53827738264
and bad	0.543791926108	-0.189033971789	0.796646178189	0.0959831715578	-0.756284968072	-0.289561409299	0.762661815832
and be	0.965562493962	-0.00385810898035	-1.16042898345	-0.266993666128	0.0250813786264	-0.478235782213	-0.229813208999
and beautiful	-0.98041128738	0.618737957045	-0.0540987390665	-0.184866610152	0.110620297104	1.1758846567	-0.357099008256
and being	0.323716906032	0.0406509700115	-0.41795313531	-0.547879016603	0.243086888069	0.083760181823	0.252157833835
and better	1.11007354515	-0.872628985431	-0.260437010734	-1.85156863163	0.364522101867	0.0584254917819	0.524561195361
and black	-0.388728321785	-0.399518267832	-0.256733355853	-0.288568636395	1.7244631183	-0.309162131292	1.07810165359
and both	0.313974822142	0.282496479246	-1.19176460717	-0.539910511967	0.728552288009	-0.267078975834	0.544823807654
and by	0.15238410586	-0.179188643076	-0.42382827388	0.943323095991	0.179906548777	-0.346809795418	0.0409098163338
and call	-0.615417409023	0.0561589663241	0.412559822119	0.32590927655	0.168156582002	0.268737642118	-0.0109579366578
and can	0.672313039329	-0.174342998782	0.0152200694948	0.697967754704	-0.587901882882	0.0772032286176	-0.588000536774
and cant	-1.03457586478	1.04830218926	-1.60209520664	-1.06415355935	1.27346651551	-1.80598402911	-0.384515641384
and cant even	0.0468580056932	0.63736296205	-0.0502321264246	-0.329119497367	-0.16406595523	0.412482735457	-0.333279323288
and cant get	-1.35589788022	0.796836915368	-0.268546240163	-0.219030536645	-0.226213304467	-0.149715862841	-0.0534780309052
and cheese	0.734142014225	-0.329867646028	0.432235638683	-0.39470277295	-0.210892614952	0.0437202980219	-0.273783568816
and come	-0.410891448842	0.366387282826	-0.451719864297	0.262754457165	0.25568211206	0.957131204035	0.0488917211496
and could	-0.602788264973	0.593977529398	-0.958517719885	-0.577507679549	-0.124399193103	-0.0692041238147	1.52471690274
and couldnt	-0.349817878413	1.02594493642	-1.64267976346	-0.365100599952	0.0878008714434	-0.526571460728	0.746416220583
and counting	-0.455118675117	-0.69435200754	-0.278288219656	0.720079253658	1.90580090998	0.361925796491	-0.959932382662
and cry	-0.88181813664	1.67009121459	-0.347934258093	-0.770315312116	-0.668388684855	-0.948393020236	0.196783728588
and dad	0.180015573392	0.242597141187	0.844337887783	0.102420174443	-0.369814205904	0.324924417692	-0.752224021806
and did	0.537727731034	-0.449631528987	0.361670752846	-0.142714804124	0.157212265588	-0.385425243503	0.589527392685
and didnt	0.307590120047	1.19872487708	-1.91735859304	-0.912412820387	0.930784353556	-1.09674605125	-0.774006453653
and didnt even	-0.676558528327	-0.34125525769	-0.525636777789	-0.0572558273488	0.985539870998	0.795202855241	-1.14290396024
and didnt get	1.12194642529	-0.0434029235031	-0.759525526803	-1.11872691493	-0.535763424062	-0.299928126709	0.158204062428
and do	0.70579887204	0.280972592461	-0.16069945747	-0.0976500432305	-0.215007716814	0.150667260458	-0.35123587612
and doesnt	0.0424758729943	0.527802976238	-0.855278510766	-0.860597970594	0.404487663435	-0.145187052736	-0.375523996819
and dont	-0.39499928602	0.941737619158	-0.914743119102	-0.867208675177	0.54809265103	-0.489807633924	0.0641869734178
and dont even	0.414090085219	0.515141943736	0.148199764383	-0.52769229868	0.169368856393	-0.897768258954	0.089956574705
and dont have	-0.250492413496	0.894592425456	-0.967945862857	0.382873872099	-0.551197541048	-0.777140671459	0.731692848984
and dont know	-0.290378523552	-0.215032469343	0.352712984489	-0.411230996096	-0.417174434692	-0.386283979321	1.57493927507
and down	-0.606411899661	-0.239297353401	-0.24921270293	-0.26790339813	1.46883419486	0.491420363203	-0.104464198576
and drink	0.740285684901	0.587234381193	0.618719312704	-0.403795316829	-0.211698202671	0.0625462802979	-0.809805913555
and eat	0.39693173514	1.04580014321	0.38522420226	-0.231084212334	0.659509399772	-0.506007291619	-1.85169685733
and eating	0.429048322018	-0.100078805056	0.0873441252187	-0.551913042348	0.785759491423	-0.511329029835	0.56028045722
and end	0.482866633897	-0.0564004991394	-0.638737859191	-0.198055376667	0.00654172924954	0.76303170674	0.11943051468
and enjoy	0.74512932072	-0.769782898331	0.698681005616	0.109518064403	-1.06054822414	0.371798645818	-0.665793125242
and even	0.480792784671	-0.00716495917996	0.623924922861	-0.556847271639	0.242265324583	0.856973224268	-0.320511401644
and every	-0.374634409256	0.543686258864	-0.40152782218	0.0272963203922	-0.38218400546	0.269887368426	0.800319906369
and everyone	0.299848319336	-0.117541673899	-0.737247440611	-0.439140138254	0.87508064634	0.0557544802207	-0.630710518183
and everything	-0.483940133364	0.074890412558	-0.739947107919	0.114411602608	0.613643030118	0.838397034512	0.11462136781
and family	-0.482086182383	0.402173313663	0.0709018223231	-0.222861439885	-0.388700581855	-0.152131032462	0.368712192367
and feel	1.5228962596	-0.431990894974	-0.88719373014	-0.694145710342	0.0323290124044	-0.641239484145	0.233080860949
and feel like	-1.34715384954	1.05261769814	-0.227167514658	1.10229389273	-0.548577116394	0.657937803507	0.409113061764
and feeling	0.383006119024	-0.0883699999958	0.814663450415	0.0108118027423	-1.11232616376	-0.267052144635	0.978258053662
and find	0.420728650971	0.180457327689	-0.21877334653	-0.0175336626679	-0.0617792865086	1.4596591061	-0.977799194005
and for	0.721260775678	0.0280913921874	-0.21283534291	-0.148895132988	-0.186905156656	0.400942286381	-0.697117041215
and forget	-0.383488304169	1.04964306494	-0.166831845618	-0.680420088746	0.508603754766	-0.360064943116	-0.561841925854
and forgot	-0.974407585828	0.469446008542	-0.519967055492	-0.497365772609	0.650740535099	0.212256789146	0.716620462348
and found	-0.0134681454127	-0.309465941649	-0.284477438942	0.565015731725	-0.343121213277	1.36792394386	0.197929420144
and friends	0.13333077896	-0.611235949878	-0.221081134971	-0.339980698309	-1.62316379532	0.713751853588	0.913802656418
and gave	1.1969349051	-0.238102072257	-0.597745426846	0.316306631896	-0.995760300409	0.110630848102	0.0934769037558
and get	0.77311627124	0.344868038963	-0.329135960605	0.201449517224	-0.377015934862	-0.501104929297	-0.00591974608882
and getting	0.589201214763	0.214389723688	0.183655325336	-0.0127322705081	0.614131072644	-0.722312794031	-0.991934277996
and give	0.520550738121	-0.459656694661	0.333101452278	-0.0548095355178	0.164273836066	0.20733535711	-0.0533868252846
and go	0.457814912868	0.0506067354197	-0.500578450454	-0.0615055721286	0.438968418649	0.137631050667	-0.145888069669
and go to	-0.546966525631	0.0992577403365	0.444980652618	0.136316988283	0.419287539399	-0.670428738342	0.20165105022
and going	-0.15444980374	0.613696146609	0.497026208195	-0.352825465463	0.821501306254	-0.481477296706	-0.734295306455
and good	0.607134441222	0.205143272851	0.00879919413572	-0.600715189221	-0.757613894416	-0.207757668177	-0.209073120368
and got	0.352439882093	0.60352153984	-0.821512877506	0.00312598890769	0.637232453024	-0.0256259459021	-1.00173036208
and great	1.10795868157	-0.752116419852	-0.16708917879	0.359208117132	-1.27930148245	-0.345995170879	-0.505597461986
and had	-0.527859600813	0.0975311657416	-0.474851467562	-0.0748368385792	0.134108571455	0.522361283577	0.743969128361
and had to	-1.0633696666	-0.266312347847	-0.132696133853	0.443173071513	0.344434421349	-0.342834099361	1.04863575797
and half	-0.413651254615	0.483574583874	0.617896617625	0.297379736507	0.0900476223008	-0.553292630885	0.33474180566
and happy	0.528753309994	-0.955829923259	0.238680597015	-0.202866779876	-1.52247930333	0.571015275436	-0.455265549017
and has	0.353506288754	0.252426099494	0.237393530264	-0.093603023884	0.00584561317746	-0.0555445456139	-0.20793794841
and hate	-0.739912300056	0.628328577849	1.70835222194	1.39124965155	-0.515311309677	0.0119542691106	-0.427518643666
and have	0.123772464345	0.394364726332	-0.968828329402	-0.239040911435	0.925726078756	-0.564763683891	-0.124576703105
and have no	-0.530622594208	0.226455725691	-0.333592404371	0.0369712176348	-0.61837136441	-0.275262850927	1.47943612316
and have to	-0.111853918712	0.338772933041	-0.691939210721	0.212273596987	0.0960769251222	-0.765014573729	0.104146131903
and havent	-0.00268613921934	0.260869590443	-0.830881950995	-1.00642307554	0.987089685289	0.101445306692	0.366547218402
and having	0.560667264187	0.73965546039	-0.0692799404392	-0.55315726549	-0.33062998564	0.039092967415	0.273947180941
and he	0.260246135175	0.0767028822929	-0.739996147358	-0.41977102644	0.420557058461	0.759371144316	0.299581838502
and help	1.83536260766	-1.4788133226	0.360943691983	-0.525696815526	0.142625571722	-0.222134486709	0.14088341279
and her	-0.173991557997	-0.370293955299	-0.061897561897	-0.00476676771681	0.988141787279	0.229038922312	0.577543164856
and here	-0.504136775869	1.75059765693	-0.908071198592	-0.0133216793892	0.688892093944	0.554732183823	-1.7553867493
and hes	-0.398493227957	0.498561278685	-0.407738111491	-0.568299052347	0.364306180586	0.552488027853	0.48759641229
and his	-0.18285792216	-0.520448513852	0.240962430198	0.0256626502893	0.576191316089	0.332774213491	0.889660672154
and hope	-0.0884262644703	0.252124556463	-0.337008697093	-0.45107232014	-0.0732352425953	-0.0562282887195	0.62582664864
and how	0.325618224793	0.172115995919	-0.203638542413	-0.315965756192	0.122158968557	-0.733879816157	0.703529986679
and if	0.33507849121	0.448861410724	0.398996992993	-0.425926286009	-0.418691522236	-0.28424155139	0.688859475796
and ill	0.473124047158	-0.143548292511	-0.407871867736	-0.811362546865	0.311371090206	-0.147979105639	0.911137804919
and im	-0.282789768889	1.42180351717	-2.15201210727	-0.058493518897	0.23637698554	-0.499516624203	0.114841495828
and im already	-0.200528199472	-0.780149606254	0.0508307335745	1.59936562806	-0.149950775433	-0.0505825710026	-0.10518053217
and im just	-0.755785442736	1.166322367	0.325112789244	0.172721885017	-0.539314941791	-0.814654546467	0.21779970323
and im not	-1.14085050684	1.80079637249	-0.922599655514	-1.43608804073	-0.12247162096	-0.248711574033	-0.15160851221
and im so	0.461161505587	-0.417709745451	-0.382654036628	-0.141917794464	-0.489248885918	0.0299419615807	0.655584558214
and im still	-0.248817921087	-1.50628535744	0.0521246122164	0.751125811011	0.944847698649	0.701145999104	0.164320533098
and in	0.329429999037	0.388653471163	0.114154257412	-0.39925325896	0.255042101589	0.14961744076	-0.524341690261
and is	0.940833316151	-0.25065781244	0.154361952108	-0.157807235545	0.0226967067713	-0.237612114468	-0.0258305010471
and it	0.0151259375507	0.57687870656	-1.25679090505	-0.837850977085	1.0031507242	0.460860551232	-0.44145295883
and it is	0.221881194373	-0.722910764332	-0.521309721946	0.28759767234	0.531271516	0.475664930662	-0.199185878032
and it was	0.537676441652	-0.470435005147	-0.692916649212	0.894079476113	-0.050392736906	-0.0366859468705	0.648080672798
and its	-0.103337144163	0.482357431141	-1.99385554021	0.202028173433	0.917017983984	0.229942699609	-0.300865860906
and its not	-0.42008449578	0.412044846139	-0.427372184927	-0.629881207862	0.224105224943	1.57764375247	-0.246305403325
and its only	1.05577615397	-0.306684273024	-0.332884224353	-1.03882501824	-0.207841663177	-0.118203921528	0.623156209095
and its still	1.0294030142	-0.611717030657	-0.807081216591	-0.50874574199	0.0788968403492	-0.265450037703	0.465958742007
and ive	0.330902000595	0.104787533024	-1.48249433825	-0.534158310984	0.441608202471	0.248076396962	0.507478358361
and just	-0.10420880476	0.280407394371	0.179616146245	-0.0961887863729	0.421227500298	-0.281615047467	-0.108396816008
and keep	0.274682323249	-0.348283591202	0.19723949717	-0.120612111649	-0.228344197512	0.179481511625	0.509003137536
and know	0.280607169962	-0.0995673557406	-0.361002216886	-0.412401179212	0.212902739634	0.230966017527	0.652138407585
and last	-0.938401206947	-0.135811328783	-1.05215360551	2.2049120545	0.244349022315	0.273416113634	-0.4479431444
and leave	-0.150441629825	-0.196315526057	-0.421028483696	0.0481410928207	1.26720389026	-0.59237307546	-0.699106816482
and left	-0.927725471364	-0.0920554693674	-0.197909133274	1.04546446329	1.27060998409	0.0428276591124	-1.01241007439
and let	0.0697750992162	-0.413433460611	-0.163588331308	0.380487568745	0.280287913031	-0.0565957520008	0.108109425355
and life	0.345774148731	0.194349128633	-0.676114148659	0.102359766897	0.123836420913	-0.550017591384	-0.074888834934
and like	0.211788534316	0.181292865614	-0.0621979558367	-0.123411239226	0.0735227792229	-0.135538647273	0.569967922577
and listen	0.583575349259	0.718098569903	0.41045312722	0.0840095039668	-1.14333177098	-0.0266757108765	-0.224816478792
and live	0.700860730906	-0.0624968940938	-0.0880723189082	-0.760069048925	-0.353231020025	-0.10374601873	0.499448780213
and look	0.085023718774	-1.07697545025	-0.155890276154	0.645339737355	0.487789055434	0.550928150679	0.473560061214
and lost	-0.487832455115	-0.212094290417	-0.550236217344	-0.111785189554	1.79415706233	-0.395705053294	-0.356595219311
and love	0.232178318399	0.574658461278	0.693857071895	-0.81625705702	-1.24154078082	-0.0836761696586	-0.972263302038
and made	0.277235998927	-0.064642475284	-0.526319374637	-0.143910597099	0.363760012014	0.661699453453	-0.606430924777
and make	0.59094958489	-0.369514702545	0.399653257218	-0.192533690824	0.638579723354	-0.215073057084	-0.530316087047
and makes	0.705010187304	-0.714228526703	-0.800469523793	-0.161616504329	0.954498337601	0.0252378243487	0.0275739065285
and making	0.780862706308	-0.446760595554	0.165437314312	-0.163539964305	0.284792772264	-0.687825637153	-0.462633420586
and me	-0.379172602068	0.934866779341	0.742901071281	-0.979393094171	-0.0830109672177	0.18769405038	0.134296207224
and miss	-0.951462542623	-0.263529130601	-0.0289450561971	0.00116824941547	2.03183606774	0.34672034127	-0.301490605074
and missed	-0.968674280056	0.986238635581	-1.72230601228	-1.16777757188	1.12918878144	-0.536688378373	-0.562052913549
and more	0.0196131005913	-0.47649899389	1.71233339246	0.106831981021	-0.937933370325	-0.693777338543	-0.710558361778
and most	0.750400240202	-0.554571598313	-0.565505469458	-0.196641953464	0.837254685607	-0.518296720606	-0.421700483345
and move	0.486386541279	-0.316118745881	-0.265346562881	-1.71534622859	1.16010317262	-0.0256695347572	0.0354140969398
and my	0.773705569492	-0.28383697016	-0.480567755571	-0.204982177995	0.41282115171	-0.111014708255	-0.126997342359
and my mom	0.385828903032	0.282435821911	0.195074892044	-0.540661094942	0.279344912858	0.293300180482	-1.01141017414
and need	-0.0106413641417	0.390973271053	1.09412368384	-0.612078450941	0.0778235187679	-0.378169494551	-0.0965548820737
